%YAML:1.0
---
opencv_ml_svm:
   format: 3
   svmType: C_SVC
   kernel:
      type: RBF
      gamma: 2.5382999999999999e+01
   C: 2.6699999999999999e+00
   term_criteria: { epsilon:1.1920928955078125e-07, iterations:1000 }
   var_count: 3780
   class_count: 2
   class_labels: !!opencv-matrix
      rows: 2
      cols: 1
      dt: i
      data: [ -1, 1 ]
   sv_total: 50
   support_vectors:
      - [ 0., 0., 0., 0., 0., 0., 0., 0., 0., 0., 0., 0., 0., 0., 0., 0.,
          0., 0., 0., 0., 0., 0., 0., 0., 0., 0., 0., 0., 0., 0., 0., 0.,
          0., 0., 0., 0., 0., 0., 0., 0., 0., 0., 0., 0., 0., 0., 0., 0.,
          0., 0., 0., 0., 0., 0., 0., 0., 0., 0., 0., 0., 0., 0., 0., 0.,
          0., 0., 0., 0., 0., 0., 0., 0., 0., 0., 0., 0., 0., 0., 0., 0.,
          0., 0., 0., 0., 0., 0., 0., 0., 0., 0., 0., 0., 0., 0., 0., 0.,
          0., 0., 0., 0., 0., 0., 0., 0., 0., 0., 0., 0., 0., 0., 0., 0.,
          0., 0., 0., 0., 0., 0., 0., 0., 0., 0., 0., 0., 0., 0., 0., 0.,
          0., 0., 0., 0., 0., 0., 0., 0., 0., 0., 0., 0., 0., 0., 0., 0.,
          0., 0., 0., 1.57933938e-03, 2.88431793e-01, 1.05536049e-02, 0.,
          0., 0., 3.16780880e-02, 3.06070223e-02, 1.95241068e-02,
          2.68098917e-02, 6.21451318e-01, 1.64588124e-01, 9.95134190e-03,
          1.48169361e-02, 1.59363914e-02, 0., 0., 0., 3.34263733e-03,
          3.15726459e-01, 4.03728336e-03, 0., 0., 0., 1.59633476e-02,
          2.17286628e-02, 1.34340450e-02, 5.22641093e-02, 6.21451318e-01,
          6.17643185e-02, 2.98284041e-03, 8.43203627e-03, 1.17632281e-02,
          4.10973132e-02, 4.78100330e-02, 4.71826419e-02, 4.33911867e-02,
          3.58136356e-01, 1.09984756e-01, 3.27502377e-02, 4.47890088e-02,
          5.69323935e-02, 3.54997069e-02, 7.49996677e-02, 1.12234205e-01,
          2.14270562e-01, 3.58136356e-01, 3.58136356e-01, 1.00956850e-01,
          1.56752750e-01, 8.27778876e-02, 3.33461836e-02, 4.83830348e-02,
          7.95839354e-02, 4.04972546e-02, 3.58136356e-01, 3.88918035e-02,
          1.32769439e-02, 2.90012863e-02, 4.33110446e-02, 1.43140897e-01,
          3.58136356e-01, 3.58136356e-01, 8.25702846e-02, 9.27881077e-02,
          1.11070327e-01, 5.05246632e-02, 1.06682293e-01, 1.23784013e-01,
          2.14092936e-02, 3.24340798e-02, 4.12673689e-02, 9.32513475e-02,
          2.67514855e-01, 2.45483369e-01, 4.52659838e-02, 5.07296622e-02,
          2.90659796e-02, 2.98905391e-02, 9.60362982e-03, 1.92158278e-02,
          1.36005923e-01, 2.67514855e-01, 2.67514855e-01, 1.26269862e-01,
          1.27822105e-02, 2.04368420e-02, 2.67514855e-01, 2.67514855e-01,
          2.39668667e-01, 5.82659096e-02, 8.18374828e-02, 9.42215919e-02,
          3.70933600e-02, 5.92386834e-02, 1.99255928e-01, 2.67514855e-01,
          1.82908729e-01, 1.37474999e-01, 1.54577196e-01, 2.67514855e-01,
          2.67514855e-01, 1.52180672e-01, 1.37206465e-01, 2.67514855e-01,
          3.08016017e-02, 1.29553406e-02, 2.43082941e-02, 1.59376025e-01,
          2.55802035e-01, 2.55802035e-01, 1.15628310e-01, 4.24823724e-02,
          3.01540662e-02, 5.52580096e-02, 1.67513788e-02, 2.09709834e-02,
          1.30085349e-01, 2.55802035e-01, 2.29539558e-01, 8.04663524e-02,
          7.42963627e-02, 9.49344710e-02, 1.76182359e-01, 8.52916762e-02,
          1.44193813e-01, 1.82740957e-01, 2.55802035e-01, 2.55802035e-01,
          1.83982387e-01, 2.02587813e-01, 1.39927715e-01, 2.08023727e-01,
          9.87589359e-02, 1.16166137e-01, 1.57685310e-01, 1.88004225e-01,
          1.50592357e-01, 2.55802035e-01, 2.55802035e-01, 2.55802035e-01,
          4.48627099e-02, 8.32451601e-03, 1.34274978e-02, 9.49677005e-02,
          1.99683294e-01, 1.47522196e-01, 9.98264179e-02, 6.30807430e-02,
          8.15770179e-02, 3.62735172e-03, 2.20852941e-02, 7.28525445e-02,
          1.99121296e-01, 3.07496279e-01, 2.37891749e-01, 2.63658594e-02,
          4.11017332e-03, 1.73668507e-02, 2.21757174e-01, 7.11669624e-02,
          7.78296888e-02, 1.23093888e-01, 3.07496279e-01, 2.52518028e-01,
          3.07496279e-01, 3.07496279e-01, 2.76356906e-01, 1.00421131e-01,
          6.06150515e-02, 1.31101727e-01, 1.12230510e-01, 3.07496279e-01,
          2.07061395e-01, 1.07756518e-01, 2.98764072e-02, 1.14313781e-01,
          5.18107824e-02, 3.31285149e-02, 7.68729746e-02, 1.61630824e-01,
          4.37839240e-01, 1.71575740e-01, 4.62738574e-02, 4.17660773e-02,
          9.30478275e-02, 9.20730084e-02, 9.22734849e-03, 1.76687036e-02,
          7.45336190e-02, 4.37839240e-01, 1.31588787e-01, 3.79155837e-02,
          5.82633168e-02, 1.52647361e-01, 1.76824689e-01, 6.99563101e-02,
          1.26171604e-01, 7.82535523e-02, 2.40153387e-01, 1.21551044e-01,
          3.89042646e-02, 3.39636803e-02, 2.38352358e-01, 1.46999314e-01,
          3.19220833e-02, 2.98729856e-02, 8.49378183e-02, 4.37839240e-01,
          1.02892041e-01, 3.25916447e-02, 4.24391702e-02, 2.20282644e-01,
          3.73281464e-02, 6.00665924e-04, 1.77986408e-03, 5.11616729e-02,
          6.24002159e-01, 1.09211296e-01, 4.67097433e-03, 1.56731140e-02,
          5.50654829e-02, 0., 0., 0., 2.37823883e-03, 2.72443354e-01,
          7.06597976e-03, 0., 0., 0., 3.02459579e-02, 5.60970884e-03,
          6.05613599e-03, 8.63127559e-02, 6.24002159e-01, 6.20145090e-02,
          7.33846379e-03, 1.51676890e-02, 5.01172803e-02, 0., 0., 0.,
          5.35588153e-03, 3.26157302e-01, 2.96144956e-03, 0., 0., 0., 0.,
          0., 0., 0., 0., 0., 0., 0., 0., 0., 0., 0., 0., 0., 0., 0., 0.,
          0., 0., 0., 0., 0., 0., 0., 0., 0., 0., 0., 0., 0., 0., 0., 0.,
          0., 0., 0., 0., 0., 0., 0., 0., 0., 0., 0., 0., 0., 0., 0., 0.,
          0., 0., 0., 0., 0., 0., 0., 0., 0., 0., 0., 0., 0., 0., 0., 0.,
          0., 0., 0., 0., 0., 0., 0., 0., 0., 0., 0., 0., 0., 0., 0., 0.,
          0., 0., 0., 0., 0., 0., 0., 0., 0., 0., 0., 0., 0., 0., 0., 0.,
          0., 0., 0., 0., 0., 0., 0., 0., 0., 0., 0., 0., 0., 0., 0., 0.,
          0., 0., 0., 0., 0., 0., 0., 0., 0., 0., 0., 0., 0., 0., 0., 0.,
          0., 0., 0., 0., 0., 0., 0., 0., 0., 0., 0., 0., 0., 0., 0., 0.,
          0., 0., 0., 0., 0., 0., 0., 0., 0., 0., 0., 0., 0., 0., 0., 0.,
          0., 0., 0., 0., 0., 0., 0., 0., 0., 0., 0., 0., 0., 0., 0., 0.,
          0., 0., 0., 0., 0., 0., 0., 0., 0., 0., 0., 0., 0., 0., 0., 0.,
          0., 0., 0., 0., 0., 0., 0., 0., 0., 0., 0., 0., 0., 0., 0., 0.,
          0., 0., 0., 0., 0., 0., 0., 0., 0., 0., 0., 0., 0., 0., 0., 0.,
          0., 0., 0., 0., 0., 0., 0., 0., 0., 0., 0., 0., 0., 0., 0., 0.,
          0., 0., 0., 0., 0., 0., 0., 0., 0., 0., 0., 0., 0., 0., 0., 0.,
          0., 0., 0., 0., 0., 0., 0., 0., 0., 0., 0., 0., 0., 0., 0., 0.,
          0., 0., 0., 0., 0., 0., 0., 0., 0., 0., 0., 0., 0., 0., 0., 0.,
          0., 0., 8.47979740e-04, 2.75827736e-01, 4.68089740e-04, 0., 0.,
          0., 3.44099058e-03, 9.70990490e-03, 4.80442755e-02,
          2.06861645e-02, 5.89779496e-01, 8.78926925e-03, 1.27028080e-03,
          5.70596952e-04, 1.74155063e-03, 0., 0., 0., 0., 2.91090995e-01,
          1.03756245e-02, 5.61154447e-04, 0., 0., 8.20426329e-04,
          3.08730137e-02, 3.29234362e-01, 2.83509903e-02, 5.89779496e-01,
          1.56042352e-01, 8.99471715e-03, 1.92957043e-04, 4.17991723e-05,
          7.52901053e-03, 3.42520103e-02, 1.50987789e-01, 6.51617274e-02,
          3.15197438e-01, 4.90487274e-03, 3.50430538e-03, 2.25137477e-03,
          3.60768172e-03, 7.44480863e-02, 3.15197438e-01, 3.15197438e-01,
          1.38184831e-01, 6.40963763e-02, 4.36404087e-02, 2.18494777e-02,
          1.22890836e-02, 2.81387288e-02, 2.79048481e-03, 5.50418124e-02,
          3.15197438e-01, 1.71502069e-01, 3.15197438e-01, 8.26443061e-02,
          2.42022388e-02, 1.03471028e-02, 1.93976462e-04, 3.25588733e-02,
          3.15197438e-01, 3.15197438e-01, 3.15197438e-01, 2.24989742e-01,
          1.54883519e-01, 1.47300690e-01, 5.88504709e-02, 2.92136353e-02,
          1.98637336e-01, 2.77576655e-01, 2.77576655e-01, 4.77794558e-02,
          5.76108396e-02, 4.77550961e-02, 3.51403765e-02, 2.89316829e-02,
          8.94630775e-02, 2.77576655e-01, 2.77576655e-01, 1.61223114e-01,
          6.66466057e-02, 2.45975658e-01, 1.86813191e-01, 1.41531900e-01,
          1.04256980e-01, 1.76113144e-01, 9.42321122e-02, 2.77576655e-01,
          2.77576655e-01, 9.92259458e-02, 7.37333372e-02, 7.23316073e-02,
          7.87110850e-02, 3.39498334e-02, 3.94136198e-02, 2.11956322e-01,
          2.77576655e-01, 2.77576655e-01, 4.32941392e-02, 1.10422201e-01,
          1.08147368e-01, 1.01431452e-01, 4.90988307e-02, 1.18251368e-01,
          2.23830432e-01, 1.74206257e-01, 1.29432634e-01, 9.91808847e-02,
          2.44931117e-01, 2.32585326e-01, 2.53869295e-01, 2.53869295e-01,
          1.86265290e-01, 2.53869295e-01, 1.10634878e-01, 1.09227121e-01,
          9.88365263e-02, 1.43305689e-01, 1.35359436e-01, 2.53869295e-01,
          2.53869295e-01, 2.53869295e-01, 1.34031311e-01, 2.07301736e-01,
          7.41725937e-02, 5.03047965e-02, 1.12809628e-01, 1.02619387e-01,
          1.26780376e-01, 1.15955442e-01, 1.83540851e-01, 1.73390165e-01,
          6.18819594e-02, 3.61604355e-02, 4.34914902e-02, 5.79556450e-02,
          4.20509838e-02, 1.05343722e-01, 1.72230437e-01, 2.09126487e-01,
          2.83592582e-01, 1.49879098e-01, 1.51436135e-01, 1.85626090e-01,
          2.83592582e-01, 2.53683329e-01, 2.83592582e-01, 2.83592582e-01,
          2.73160875e-01, 1.68029934e-01, 1.06674112e-01, 1.35693312e-01,
          1.05346963e-01, 2.03988135e-01, 1.28777027e-01, 8.09189603e-02,
          3.97990011e-02, 1.24589249e-01, 2.83592582e-01, 1.01441637e-01,
          7.41562694e-02, 7.25698769e-02, 1.11194715e-01, 8.62516165e-02,
          8.63713026e-02, 1.46048948e-01, 1.90650523e-01, 2.06666321e-01,
          2.13548869e-01, 1.26794353e-01, 7.03099668e-02, 5.10892682e-02,
          3.92099135e-02, 1.36953266e-02, 3.70156504e-02, 6.48562163e-02,
          1.54429689e-01, 9.72851813e-02, 1.07585482e-01, 4.54171635e-02,
          2.57243458e-02, 5.38383238e-02, 3.79540920e-02, 5.03696874e-02,
          1.65574625e-01, 1.21881552e-01, 8.76479819e-02, 5.68376407e-02,
          1.78695709e-01, 3.01518768e-01, 1.04760244e-01, 8.27617198e-02,
          7.80940652e-02, 1.48930505e-01, 2.27468967e-01, 3.01518768e-01,
          2.05727980e-01, 1.74774542e-01, 5.82975894e-02, 4.20493446e-02,
          6.91030473e-02, 6.87153786e-02, 7.46321231e-02, 1.53065547e-01,
          2.94392318e-01, 2.15757415e-01, 3.01518768e-01, 3.01518768e-01,
          2.39608571e-01, 2.40547404e-01, 1.42533928e-01, 1.02675542e-01,
          3.42421122e-02, 4.71877493e-02, 1.88308656e-02, 2.72999465e-01,
          4.90264952e-01, 8.33489224e-02, 4.30840999e-02, 3.04006767e-02,
          4.49495688e-02, 0., 0., 0., 1.77184511e-02, 2.53216714e-01,
          2.71319970e-03, 1.28068234e-04, 0., 0., 4.85907905e-02,
          1.16952695e-01, 9.29883271e-02, 4.14977312e-01, 4.90264952e-01,
          2.81468987e-01, 1.57708973e-01, 5.96715547e-02, 3.49979065e-02,
          0., 0., 0., 1.76632144e-02, 2.31620863e-01, 1.32291596e-02,
          1.92102348e-03, 0., 0., 0., 0., 0., 0., 0., 0., 0., 0., 0., 0.,
          0., 0., 0., 0., 0., 0., 0., 0., 0., 0., 0., 0., 0., 0., 0., 0.,
          0., 0., 0., 0., 0., 0., 0., 0., 0., 0., 0., 0., 0., 0., 0., 0.,
          0., 0., 0., 0., 0., 0., 0., 0., 0., 0., 0., 0., 0., 0., 0., 0.,
          0., 0., 0., 0., 0., 0., 0., 0., 0., 0., 0., 0., 0., 0., 0., 0.,
          0., 0., 0., 0., 0., 0., 0., 0., 0., 0., 0., 0., 0., 0., 0., 0.,
          0., 0., 0., 0., 0., 0., 0., 0., 0., 0., 0., 0., 0., 0., 0., 0.,
          0., 0., 0., 0., 0., 0., 0., 0., 0., 0., 0., 0., 0., 0., 0., 0.,
          0., 0., 0., 0., 0., 0., 0., 0., 0., 0., 0., 0., 0., 0., 0., 0.,
          0., 0., 0., 0., 0., 0., 0., 0., 0., 0., 0., 0., 0., 0., 0., 0.,
          0., 0., 0., 0., 0., 0., 0., 0., 0., 0., 0., 0., 0., 0., 0., 0.,
          0., 0., 0., 0., 0., 0., 0., 0., 0., 0., 0., 0., 0., 0., 0., 0.,
          0., 0., 0., 0., 0., 0., 0., 0., 0., 0., 0., 0., 0., 0., 0., 0.,
          0., 0., 0., 0., 0., 0., 0., 0., 0., 0., 0., 0., 0., 0., 0., 0.,
          0., 0., 0., 0., 0., 0., 0., 0., 0., 0., 0., 0., 0., 0., 0., 0.,
          0., 0., 0., 0., 0., 0., 0., 0., 0., 0., 0., 0., 0., 0., 0., 0.,
          0., 0., 0., 0., 0., 0., 0., 0., 0., 0., 0., 0., 0., 0., 0., 0.,
          0., 0., 0., 0., 0., 0., 0., 0., 0., 0., 0., 0., 0., 0., 0., 0.,
          0., 0., 0., 0., 0., 0., 0., 0., 0., 9.71383051e-05,
          2.12749660e-01, 1.84290726e-02, 7.47145666e-03, 7.83932745e-04,
          0., 2.17279326e-03, 4.29253541e-02, 4.00494397e-01,
          6.46445230e-02, 4.00494397e-01, 2.76436120e-01, 1.12071857e-01,
          1.17589924e-02, 0., 0., 0., 2.56450614e-03, 1.48741677e-02,
          1.30861595e-01, 8.63235071e-03, 1.02582797e-02, 1.13760354e-03,
          0., 4.83243074e-03, 1.37543026e-02, 4.00494397e-01,
          3.93747509e-01, 4.00494397e-01, 1.29862741e-01, 1.53874204e-01,
          1.70640554e-02, 0., 5.92865224e-04, 2.83138435e-02,
          2.53563166e-01, 8.90612081e-02, 2.58111328e-01, 1.65609196e-01,
          3.68723609e-02, 1.51382079e-02, 7.57723637e-06, 8.18534754e-03,
          1.40999824e-01, 2.76063174e-01, 2.24392936e-01, 2.76063174e-01,
          2.76063174e-01, 1.64186686e-01, 5.82594089e-02, 1.09122526e-02,
          1.37916277e-03, 1.67105440e-02, 2.34421283e-01, 1.19560629e-01,
          2.28803709e-01, 1.51191220e-01, 1.07069209e-01, 3.89860123e-02,
          9.61544225e-04, 2.25076340e-02, 6.47215396e-02, 1.91510901e-01,
          1.43854946e-01, 2.76063174e-01, 2.76063174e-01, 2.76063174e-01,
          2.22486705e-01, 3.53603624e-02, 8.28374699e-02, 2.52331138e-01,
          2.52359211e-01, 1.34648442e-01, 1.41143501e-01, 1.75171033e-01,
          1.34342402e-01, 6.06343150e-02, 4.95086387e-02, 1.65752575e-01,
          1.82402253e-01, 1.60873666e-01, 9.61340517e-02, 1.09689243e-01,
          1.39945373e-01, 1.32060423e-01, 7.15949982e-02, 9.42836106e-02,
          1.33109748e-01, 6.89908192e-02, 1.00914739e-01, 1.14831686e-01,
          1.79998919e-01, 2.52359211e-01, 2.52359211e-01, 2.52359211e-01,
          1.31822392e-01, 2.52359211e-01, 8.37832615e-02, 6.61946088e-02,
          1.64785624e-01, 1.53448343e-01, 1.40552208e-01, 2.52359211e-01,
          2.27632716e-01, 2.52359211e-01, 9.35193151e-02, 1.01449005e-01,
          8.79086703e-02, 1.06302552e-01, 1.20076604e-01, 1.23065710e-01,
          1.22728378e-01, 7.63069615e-02, 1.26414135e-01, 6.21963479e-02,
          6.30075857e-02, 7.05298260e-02, 4.69550751e-02, 1.31776467e-01,
          1.37073740e-01, 9.30143744e-02, 1.06652275e-01, 1.90604091e-01,
          1.86166838e-01, 1.15729347e-01, 1.42578334e-01, 1.93417236e-01,
          2.41276070e-01, 1.58835515e-01, 2.08603680e-01, 2.30234638e-01,
          2.41276070e-01, 2.41276070e-01, 2.41276070e-01, 2.41276070e-01,
          1.41909659e-01, 2.41276070e-01, 2.41276070e-01, 1.18142106e-01,
          2.41276070e-01, 2.41276070e-01, 5.87423407e-02, 4.03193124e-02,
          4.16223705e-02, 1.78094208e-02, 6.87465519e-02, 1.03932865e-01,
          5.38752340e-02, 6.53734580e-02, 1.03243351e-01, 2.47096270e-01,
          2.13829264e-01, 1.05018549e-01, 6.48903921e-02, 4.66722287e-02,
          2.74312645e-02, 1.32448282e-02, 1.20467454e-01, 1.01409286e-01,
          2.58253425e-01, 2.58253425e-01, 2.58253425e-01, 1.22080550e-01,
          1.38189182e-01, 2.14582965e-01, 8.97382572e-02, 2.16932431e-01,
          2.58253425e-01, 2.58253425e-01, 2.58253425e-01, 2.58253425e-01,
          2.14501172e-01, 9.62587819e-02, 9.66742635e-02, 8.35082605e-02,
          2.58253425e-01, 2.58253425e-01, 2.48356149e-01, 2.48356149e-01,
          1.46459743e-01, 1.73968062e-01, 8.65867734e-02, 2.75101140e-02,
          3.76021564e-02, 1.04032539e-01, 6.69701099e-02, 1.58601224e-01,
          2.17569366e-01, 1.81510836e-01, 2.48356149e-01, 2.48356149e-01,
          1.19274065e-01, 1.20109759e-01, 8.65968466e-02, 5.38435467e-02,
          2.48356149e-01, 1.89687595e-01, 1.09486438e-01, 1.54660672e-01,
          1.36860460e-01, 7.44101852e-02, 8.31889957e-02, 2.27129117e-01,
          2.39229962e-01, 1.52534723e-01, 1.06041692e-01, 1.08625874e-01,
          1.78219944e-01, 2.48356149e-01, 1.45289764e-01, 2.03726441e-01,
          1.43581554e-01, 1.81813806e-01, 6.67979419e-02, 8.64979029e-02,
          1.49704590e-01, 3.61161619e-01, 4.50780064e-01, 2.18179658e-01,
          1.43067032e-01, 6.70691952e-02, 2.94566005e-02, 0., 0.,
          4.55986010e-04, 7.38980062e-03, 2.21011892e-01, 9.01327934e-03,
          1.16036017e-03, 0., 0., 6.57631755e-02, 4.75600697e-02,
          1.57707095e-01, 2.95500129e-01, 4.50780064e-01, 1.82375729e-01,
          2.83883691e-01, 1.05365425e-01, 1.16450630e-01, 0., 0.,
          7.00075412e-03, 1.46373501e-02, 2.10472330e-01, 3.78018734e-03,
          3.26657807e-03, 0., 0., 0., 0., 0., 0., 0., 0., 0., 0., 0., 0.,
          0., 0., 0., 0., 0., 0., 0., 0., 0., 0., 0., 0., 0., 0., 0., 0.,
          0., 0., 0., 0., 0., 0., 0., 0., 0., 0., 0., 0., 0., 0., 0., 0.,
          0., 0., 0., 0., 0., 0., 0., 0., 0., 0., 0., 0., 0., 0., 0., 0.,
          0., 0., 0., 0., 0., 0., 0., 0., 0., 0., 0., 0., 0., 0., 0., 0.,
          0., 0., 0., 0., 0., 0., 0., 0., 0., 0., 0., 0., 0., 0., 0., 0.,
          0., 0., 0., 0., 0., 0., 0., 0., 0., 0., 0., 0., 0., 0., 0., 0.,
          0., 0., 0., 0., 0., 0., 0., 0., 0., 0., 0., 0., 0., 0., 0., 0.,
          0., 0., 0., 0., 0., 0., 0., 0., 0., 0., 0., 0., 0., 0., 0., 0.,
          0., 0., 0., 0., 0., 0., 0., 0., 0., 0., 0., 0., 0., 0., 0., 0.,
          0., 0., 0., 0., 0., 0., 0., 0., 0., 0., 0., 0., 0., 0., 0., 0.,
          0., 0., 0., 0., 0., 0., 0., 0., 0., 0., 0., 0., 0., 0., 0., 0.,
          0., 0., 0., 0., 0., 0., 0., 0., 0., 0., 0., 0., 0., 0., 0., 0.,
          0., 0., 0., 0., 0., 0., 0., 0., 0., 0., 0., 0., 0., 0., 0., 0.,
          0., 0., 0., 0., 0., 0., 0., 0., 0., 0., 0., 0., 0., 0., 0., 0.,
          0., 0., 0., 0., 0., 0., 0., 0., 0., 0., 0., 0., 0., 0., 0., 0.,
          0., 0., 0., 0., 0., 0., 0., 0., 0., 0., 0., 0., 0., 0., 0., 0.,
          0., 0., 0., 0., 0., 0., 0., 0., 0., 0., 0., 0., 0., 0., 0., 0.,
          0., 0., 0., 0., 0., 0., 0., 0., 3.48035921e-03, 2.97864769e-02,
          1.37467474e-01, 8.94873985e-04, 1.36704033e-03, 1.54578258e-04,
          0., 4.29599918e-03, 1.54409669e-02, 3.51121455e-01,
          4.68715012e-01, 4.68715012e-01, 1.48651460e-02, 2.15371475e-02,
          4.86848503e-03, 1.53253297e-03, 0., 0., 8.90540599e-04,
          2.02094503e-02, 2.84897059e-01, 2.11562426e-03, 0., 0., 0.,
          1.49327982e-02, 2.37169061e-02, 8.02807733e-02, 3.19469541e-01,
          4.68715012e-01, 3.28559466e-02, 1.44403335e-03, 9.59890336e-03,
          1.17781358e-02, 3.45098530e-03, 1.54019194e-02, 2.47471109e-01,
          2.47547150e-01, 2.69711107e-01, 5.31609654e-02, 1.47943884e-01,
          4.38709594e-02, 1.52154202e-02, 7.89042115e-02, 2.20751353e-02,
          8.34296942e-02, 9.27974433e-02, 2.82310218e-01, 2.27241307e-01,
          3.53251964e-01, 3.53251964e-01, 2.39898413e-01, 1.30626354e-02,
          1.78864710e-02, 4.89303358e-02, 1.15933664e-01, 3.53251964e-01,
          1.57111045e-02, 2.22071689e-02, 2.51192059e-02, 3.18562314e-02,
          3.86877023e-02, 8.13010149e-03, 2.41918787e-02, 1.13675654e-01,
          1.11816294e-01, 4.96054851e-02, 2.87547469e-01, 1.58222407e-01,
          1.79132611e-01, 2.25439504e-01, 3.36658359e-02, 1.19037656e-02,
          3.46764401e-02, 6.63605928e-02, 8.65233168e-02, 2.84520775e-01,
          2.84520775e-01, 2.84520775e-01, 2.84520775e-01, 8.00521076e-02,
          3.93433720e-02, 1.09071426e-01, 9.62042883e-02, 4.97082584e-02,
          2.84520775e-01, 2.84520775e-01, 2.84520775e-01, 1.18964456e-01,
          1.65162478e-02, 9.62614547e-03, 5.58057390e-02, 7.76364207e-02,
          3.01299654e-02, 2.13234559e-01, 1.38045132e-01, 2.08299011e-01,
          2.76087821e-01, 4.65317518e-02, 4.33791876e-02, 6.86198547e-02,
          6.37488887e-02, 1.88092142e-02, 1.38219312e-01, 1.20335117e-01,
          2.79747188e-01, 2.26752713e-01, 5.07369898e-02, 6.08929619e-02,
          1.29250363e-01, 2.14874238e-01, 8.92757177e-02, 1.86574802e-01,
          2.26752713e-01, 2.26752713e-01, 2.26752713e-01, 2.00981587e-01,
          2.26752713e-01, 1.78126886e-01, 1.95902169e-01, 2.23992467e-01,
          1.29703850e-01, 2.14223444e-01, 2.15362802e-01, 2.03601047e-01,
          3.65424752e-02, 5.92683777e-02, 1.02240123e-01, 1.21619426e-01,
          4.57498692e-02, 8.45059752e-02, 9.08854306e-02, 1.43532753e-01,
          1.73184574e-01, 1.12174213e-01, 1.73471481e-01, 1.49526015e-01,
          1.61706775e-01, 1.92823321e-01, 1.38304994e-01, 1.50465950e-01,
          2.21754909e-01, 2.50351161e-01, 2.50351161e-01, 2.50351161e-01,
          1.82190150e-01, 5.84301986e-02, 1.36688799e-01, 1.03305124e-01,
          1.74386218e-01, 1.60290286e-01, 2.07582489e-01, 2.50351161e-01,
          2.50351161e-01, 2.24021867e-01, 5.48892617e-02, 6.67755827e-02,
          6.67074695e-02, 1.51484609e-01, 1.64199591e-01, 2.17391461e-01,
          2.50351161e-01, 2.50351161e-01, 1.41865894e-01, 5.44666275e-02,
          1.06212355e-01, 1.16956957e-01, 9.91046727e-02, 1.66922897e-01,
          1.68062896e-01, 2.15474144e-01, 2.01650277e-01, 1.09851755e-01,
          7.41755068e-02, 5.07386439e-02, 5.77233993e-02, 4.49370742e-02,
          8.81222486e-02, 2.36777321e-01, 1.28092363e-01, 1.56533226e-01,
          1.64321274e-01, 1.11560486e-01, 9.25934538e-02, 9.87679139e-02,
          2.06830040e-01, 2.78233856e-01, 1.42614305e-01, 5.01130596e-02,
          6.96133226e-02, 7.21238777e-02, 2.78233856e-01, 1.93355724e-01,
          2.38956124e-01, 2.01597691e-01, 2.78233856e-01, 1.39612257e-01,
          9.40067396e-02, 1.22416370e-01, 8.88799950e-02, 1.76040828e-01,
          1.26287922e-01, 8.08707774e-02, 9.71808508e-02, 1.89164162e-01,
          6.16029501e-02, 3.89202572e-02, 1.19449735e-01, 1.93747848e-01,
          2.78233856e-01, 1.92428008e-01, 1.21435665e-01, 1.55945450e-01,
          1.97175086e-01, 5.17677292e-02, 2.66699493e-02, 1.16946906e-01,
          1.46999195e-01, 4.51714903e-01, 2.41905123e-01, 2.93070197e-01,
          1.16226085e-01, 2.02115685e-01, 0., 2.29457655e-04,
          7.13645853e-03, 9.78865847e-03, 1.94936246e-01, 1.15510887e-02,
          9.78680793e-03, 0., 0., 3.04315817e-02, 5.77237308e-02,
          2.01549605e-01, 2.89526194e-01, 4.51714903e-01, 2.56705165e-01,
          1.42613634e-01, 1.60756022e-01, 1.14916988e-01, 0.,
          3.44186462e-03, 1.28170736e-02, 1.25620551e-02, 2.38708243e-01,
          1.39174238e-02, 6.36247313e-03, 5.91118447e-03, 0., 0., 0., 0.,
          0., 0., 0., 0., 0., 0., 0., 0., 0., 0., 0., 0., 0., 0., 0., 0.,
          0., 0., 0., 0., 0., 0., 0., 0., 0., 0., 0., 0., 0., 0., 0., 0.,
          0., 0., 0., 0., 0., 0., 0., 0., 0., 0., 0., 0., 0., 0., 0., 0.,
          0., 0., 0., 0., 0., 0., 0., 0., 0., 0., 0., 0., 0., 0., 0., 0.,
          0., 0., 0., 0., 0., 0., 0., 0., 0., 0., 0., 0., 0., 0., 0., 0.,
          0., 0., 0., 0., 0., 0., 0., 0., 0., 0., 0., 0., 0., 0., 0., 0.,
          0., 0., 0., 0., 0., 0., 0., 0., 0., 0., 0., 0., 0., 0., 0., 0.,
          0., 0., 0., 0., 0., 0., 0., 0., 0., 0., 0., 0., 0., 0., 0., 0.,
          0., 0., 0., 0., 0., 0., 0., 0., 0., 0., 0., 0., 0., 0., 0., 0.,
          0., 0., 0., 0., 0., 0., 0., 0., 0., 0., 0., 0., 0., 0., 0., 0.,
          0., 0., 0., 0., 0., 0., 0., 0., 0., 0., 0., 0., 0., 0., 0., 0.,
          0., 0., 0., 0., 0., 0., 0., 0., 0., 0., 0., 0., 0., 0., 0., 0.,
          0., 0., 0., 0., 0., 0., 0., 0., 0., 0., 0., 0., 0., 0., 0., 0.,
          0., 0., 0., 0., 0., 0., 0., 0., 0., 0., 0., 0., 0., 0., 0., 0.,
          0., 0., 0., 0., 0., 0., 0., 0., 0., 0., 0., 0., 0., 0., 0., 0.,
          0., 0., 0., 0., 0., 0., 0., 0., 0., 0., 0., 0., 0., 0., 0., 0.,
          0., 0., 0., 0., 0., 0., 0., 0., 0., 0., 0., 0., 0., 0., 0., 0.,
          0., 0., 0., 0., 0., 0., 0., 0., 0., 0., 0., 0., 0., 0., 0., 0.,
          2.30865669e-03, 2.82709122e-01, 1.07271550e-02, 1.37833238e-04,
          0., 0., 1.39905969e-02, 5.41634811e-03, 9.15925892e-04,
          3.46298516e-02, 5.19885540e-01, 1.60907313e-01, 3.67518631e-03,
          4.06409390e-02, 2.19959039e-02, 0., 0., 0., 1.10429872e-04,
          2.22397029e-01, 3.14466469e-02, 2.83980928e-03, 0., 0.,
          5.71690546e-03, 5.23810086e-05, 0., 1.65644800e-03,
          5.19885540e-01, 4.72175658e-01, 1.17827572e-01, 2.38661855e-01,
          2.12194640e-02, 3.73154096e-02, 2.37269234e-02, 1.66515484e-02,
          5.29675223e-02, 3.73939872e-01, 1.16476282e-01, 7.73849338e-03,
          7.16707334e-02, 6.13095835e-02, 2.24973187e-02, 2.72056051e-02,
          6.15795255e-02, 2.81514406e-01, 3.02385896e-01, 1.09367937e-01,
          2.64082644e-02, 4.39154766e-02, 5.13790771e-02, 2.55525094e-02,
          1.29329767e-02, 8.76093470e-03, 2.30728649e-02, 3.73939872e-01,
          3.36863607e-01, 1.82772592e-01, 3.73939872e-01, 6.64030239e-02,
          3.13784890e-02, 3.17013375e-02, 3.52882855e-02, 1.30173355e-01,
          3.33286852e-01, 1.20830648e-01, 6.68480098e-02, 2.21534848e-01,
          6.42617196e-02, 5.40248863e-02, 4.18986976e-02, 8.48943293e-02,
          3.31902534e-01, 3.32708329e-01, 2.31973857e-01, 5.86855635e-02,
          4.39788513e-02, 9.36671123e-02, 1.90851837e-01, 1.04524300e-01,
          2.44199768e-01, 3.32708329e-01, 1.65835321e-01, 7.01305121e-02,
          3.04708574e-02, 2.34875567e-02, 1.54903591e-01, 3.09756473e-02,
          2.61916183e-02, 5.84624484e-02, 1.51818380e-01, 3.32708329e-01,
          2.85328865e-01, 5.95038310e-02, 2.85616722e-02, 2.47741528e-02,
          2.42606159e-02, 2.38636825e-02, 1.49963647e-01, 3.32708329e-01,
          2.20659390e-01, 1.01897016e-01, 4.11891490e-02, 6.83578709e-03,
          7.43191503e-03, 7.45411590e-02, 5.27312011e-02, 1.16143450e-01,
          2.52989173e-01, 1.64120212e-01, 5.71159311e-02, 1.88430101e-02,
          1.99275054e-02, 3.86844873e-02, 1.33644998e-01, 7.86497444e-02,
          9.11113471e-02, 2.35492632e-01, 3.34238201e-01, 3.34238201e-01,
          1.48749739e-01, 9.25919563e-02, 1.59231812e-01, 1.93891616e-03,
          8.17878917e-03, 5.01768179e-02, 2.68039167e-01, 3.34238201e-01,
          1.00751214e-01, 1.37375202e-02, 3.38443415e-03, 1.31157180e-03,
          3.42674414e-03, 5.44623937e-03, 2.62004398e-02, 2.69815534e-01,
          3.34238201e-01, 3.34238201e-01, 1.32493913e-01, 8.53675418e-03,
          2.70027737e-03, 2.58627743e-01, 1.34664521e-01, 1.22288138e-01,
          1.58016667e-01, 2.90841907e-01, 2.63018340e-01, 1.64577037e-01,
          6.74656630e-02, 2.07494125e-01, 1.77708074e-01, 1.13947265e-01,
          1.15507685e-01, 1.25375003e-01, 2.90841907e-01, 2.04735398e-01,
          1.06733344e-01, 4.32270877e-02, 1.27158761e-01, 6.65248837e-03,
          2.01791013e-03, 2.06365474e-02, 1.81176081e-01, 2.90841907e-01,
          2.90841907e-01, 1.12954557e-01, 7.62420241e-03, 3.58444941e-03,
          2.20348984e-02, 3.11198998e-02, 5.44336252e-02, 1.48468718e-01,
          2.90841907e-01, 2.90841907e-01, 5.45962192e-02, 1.16425455e-02,
          8.18964839e-03, 5.57101406e-02, 4.92489114e-02, 6.59838915e-02,
          1.15104884e-01, 2.69610047e-01, 1.92341968e-01, 9.59547088e-02,
          6.68678284e-02, 5.84464148e-02, 2.75867768e-02, 6.39433116e-02,
          1.16414897e-01, 2.55715877e-01, 3.51264775e-01, 2.55596012e-01,
          1.62256807e-01, 2.17636377e-01, 5.48949614e-02, 5.55534884e-02,
          6.19355515e-02, 6.84108734e-02, 1.89055815e-01, 3.14860880e-01,
          2.26179630e-01, 1.16771549e-01, 4.38229591e-02, 2.63978373e-02,
          5.93690686e-02, 8.37268233e-02, 8.85021538e-02, 2.41819367e-01,
          3.51264775e-01, 2.27001220e-01, 1.39907926e-01, 1.04345456e-01,
          3.53391469e-02, 9.06374305e-03, 4.51079234e-02, 1.17865629e-01,
          2.29932636e-01, 5.22471249e-01, 2.55164534e-01, 1.13402568e-01,
          2.04797462e-01, 2.25185994e-02, 0., 1.88352528e-03,
          6.63398346e-03, 9.09127295e-03, 2.05701515e-01, 1.41212149e-02,
          4.32668952e-03, 8.79319385e-03, 0., 1.78899970e-02,
          4.32552509e-02, 4.74652499e-02, 1.85676560e-01, 5.22471249e-01,
          2.62506545e-01, 5.56921735e-02, 7.27983937e-02, 1.08926874e-02,
          0., 0., 0., 1.08389128e-02, 3.16306174e-01, 1.64686013e-02,
          1.67851942e-03, 2.02919845e-03, 0., 0., 0., 0., 0., 0., 0., 0.,
          0., 0., 0., 0., 0., 0., 0., 0., 0., 0., 0., 0., 0., 0., 0., 0.,
          0., 0., 0., 0., 0., 0., 0., 0., 0., 0., 0., 0., 0., 0., 0., 0.,
          0., 0., 0., 0., 0., 0., 0., 0., 0., 0., 0., 0., 0., 0., 0., 0.,
          0., 0., 0., 0., 0., 0., 0., 0., 0., 0., 0., 0., 0., 0., 0., 0.,
          0., 0., 0., 0., 0., 0., 0., 0., 0., 0., 0., 0., 0., 0., 0., 0.,
          0., 0., 0., 0., 0., 0., 0., 0., 0., 0., 0., 0., 0., 0., 0., 0.,
          0., 0., 0., 0., 0., 0., 0., 0., 0., 0., 0., 0., 0., 0., 0., 0.,
          0., 0., 0., 0., 0., 0., 0., 0., 0., 0., 0., 0., 0., 0., 0., 0.,
          0., 0., 0., 0., 0., 0., 0., 0., 0., 0., 0., 0., 0., 0., 0., 0.,
          0., 0., 0., 0., 0., 0., 0., 0., 0., 0., 0., 0., 0., 0., 0., 0.,
          0., 0., 0., 0., 0., 0., 0., 0., 0., 0., 0., 0., 0., 0., 0., 0.,
          0., 0., 0., 0., 0., 0., 0., 0., 0., 0., 0., 0., 0., 0., 0., 0.,
          0., 0., 0., 0., 0., 0., 0., 0., 0., 0., 0., 0., 0., 0., 0., 0.,
          0., 0., 0., 0., 0., 0., 0., 0., 0., 0., 0., 0., 0., 0., 0., 0.,
          0., 0., 0., 0., 0., 0., 0., 0., 0., 0., 0., 0., 0., 0., 0., 0.,
          0., 0., 0., 0., 0., 0., 0., 0., 0., 0., 0., 0., 0., 0., 0., 0.,
          0., 0., 0., 0., 0., 0., 0., 0., 0., 0., 0., 0., 0., 0., 0., 0.,
          0., 0., 0., 0., 0., 0., 0., 0., 0., 0., 0., 0., 1.61912141e-03,
          2.10691795e-01, 2.87813507e-02, 3.51039995e-03, 0., 0.,
          1.04642671e-03, 0., 0., 2.42868215e-02, 4.95270640e-01,
          4.48016167e-01, 2.48355359e-01, 3.53837371e-01, 1.18501578e-02,
          0., 0., 0., 3.54606728e-03, 2.15227067e-01, 3.81485489e-03,
          8.91971795e-05, 0., 0., 2.18057446e-03, 2.90696416e-03,
          1.70153342e-02, 6.51430860e-02, 4.95270640e-01, 9.09574926e-02,
          8.08478445e-02, 7.15951920e-02, 8.38119537e-03, 8.20607599e-03,
          6.10581832e-03, 3.14104534e-03, 1.49842296e-02, 3.27733248e-01,
          1.91700801e-01, 3.22182059e-01, 3.27733248e-01, 4.01353091e-02,
          3.65310758e-02, 2.58395765e-02, 2.73833349e-02, 5.45450896e-02,
          1.20240346e-01, 5.62486015e-02, 2.25320235e-01, 3.27733248e-01,
          9.33582932e-02, 7.00674951e-03, 4.49678348e-03, 1.59996115e-02,
          3.00310552e-02, 3.27733248e-01, 5.87824732e-02, 1.97449669e-01,
          2.50241429e-01, 2.90171430e-02, 2.00092383e-02, 7.27113243e-03,
          8.94746836e-03, 7.13088457e-03, 1.05086425e-02, 1.22898854e-01,
          3.27733248e-01, 3.27733248e-01, 6.32963255e-02, 6.68912232e-02,
          3.44677716e-02, 6.22717515e-02, 1.13273062e-01, 2.38979414e-01,
          1.82749823e-01, 1.38733655e-01, 1.51618093e-01, 7.69005343e-02,
          3.99388447e-02, 2.50905510e-02, 1.78044885e-01, 3.65219206e-01,
          2.00426608e-01, 8.45350698e-02, 3.37444097e-02, 7.40912277e-03,
          2.08265223e-02, 4.91166264e-02, 2.79534012e-02, 3.27160358e-02,
          5.90157248e-02, 4.49693911e-02, 2.24163845e-01, 3.65219206e-01,
          3.65219206e-01, 1.11642607e-01, 1.21035509e-01, 6.32530227e-02,
          1.64780095e-01, 3.65219206e-01, 1.58205196e-01, 8.48300159e-02,
          1.45534217e-01, 1.55280203e-01, 1.52021110e-01, 2.65605352e-03,
          2.78182956e-03, 5.62442131e-02, 2.01327533e-01, 3.84534538e-01,
          8.61165747e-02, 7.05679366e-03, 1.37999246e-03, 2.19171983e-03,
          1.26517878e-03, 9.60108067e-04, 1.61096975e-02, 1.87068075e-01,
          4.10107940e-01, 3.57261062e-01, 3.42361182e-02, 1.64246839e-03,
          2.14032200e-03, 1.26236886e-01, 3.35021242e-02, 7.32319355e-02,
          1.47277296e-01, 2.34666541e-01, 6.56635538e-02, 6.46839514e-02,
          3.40405628e-02, 1.27973169e-01, 1.62978306e-01, 9.17505696e-02,
          9.31004286e-02, 1.17462516e-01, 4.10107940e-01, 2.96053171e-01,
          6.92179129e-02, 2.92349458e-02, 1.43018067e-01, 5.67533600e-04,
          1.47361867e-03, 1.66704021e-02, 1.49457693e-01, 4.06657040e-01,
          2.74743319e-01, 3.03719193e-02, 2.57705315e-03, 1.03998953e-03,
          7.29323970e-03, 1.40495375e-02, 2.13212967e-02, 6.16984963e-02,
          4.06657040e-01, 2.81214416e-01, 3.33467685e-02, 4.97595547e-03,
          3.63831432e-03, 5.76158203e-02, 6.06935956e-02, 5.77375218e-02,
          8.39352682e-02, 4.06657040e-01, 2.79481649e-01, 3.70221250e-02,
          3.14534083e-02, 6.27865493e-02, 3.26115675e-02, 2.32173856e-02,
          3.22782323e-02, 4.93695885e-02, 4.06657040e-01, 2.01722652e-01,
          1.67538952e-02, 2.74748560e-02, 4.55938429e-02, 2.00812649e-02,
          2.10843235e-02, 2.92050950e-02, 1.21339269e-01, 4.45489407e-01,
          1.89092487e-01, 4.04702686e-02, 1.12295086e-02, 1.00501608e-02,
          3.87587175e-02, 4.71584685e-02, 5.53106442e-02, 1.47170037e-01,
          4.45489407e-01, 1.24491468e-01, 3.33781280e-02, 1.18114157e-02,
          1.76552702e-02, 2.14694329e-02, 1.34724043e-02, 3.26773860e-02,
          6.60382360e-02, 4.45489407e-01, 2.33881071e-01, 1.98780019e-02,
          1.87077522e-02, 1.33682089e-02, 3.26121710e-02, 2.05280278e-02,
          2.83722505e-02, 1.13368906e-01, 4.45489407e-01, 1.54929414e-01,
          2.17178855e-02, 1.93378180e-02, 2.16208529e-02, 1.79700237e-02,
          3.32133286e-02, 2.92441417e-02, 6.11472353e-02, 6.23723447e-01,
          1.14176236e-01, 5.68199391e-03, 3.17911105e-03, 6.88310806e-03,
          0., 0., 0., 2.68980255e-03, 2.77846426e-01, 7.08890706e-03, 0.,
          0., 0., 1.76234245e-02, 1.24322250e-02, 7.69467000e-03,
          9.88120735e-02, 6.23723447e-01, 3.88371386e-02, 6.46070438e-03,
          8.07246938e-03, 1.42697990e-02, 0., 0., 0., 6.03568228e-03,
          3.27359527e-01, 6.92839385e-04, 0., 0., 0., 0., 0., 0., 0., 0.,
          0., 0., 0., 0., 0., 0., 0., 0., 0., 0., 0., 0., 0., 0., 0., 0.,
          0., 0., 0., 0., 0., 0., 0., 0., 0., 0., 0., 0., 0., 0., 0., 0.,
          0., 0., 0., 0., 0., 0., 0., 0., 0., 0., 0., 0., 0., 0., 0., 0.,
          0., 0., 0., 0., 0., 0., 0., 0., 0., 0., 0., 0., 0., 0., 0., 0.,
          0., 0., 0., 0., 0., 0., 0., 0., 0., 0., 0., 0., 0., 0., 0., 0.,
          0., 0., 0., 0., 0., 0., 0., 0., 0., 0., 0., 0., 0., 0., 0., 0.,
          0., 0., 0., 0., 0., 0., 0., 0., 0., 0., 0., 0., 0., 0., 0., 0.,
          0., 0., 0., 0., 0., 0., 0., 0., 0., 0., 0., 0., 0., 0., 0., 0.,
          0., 0., 0., 0., 0., 0., 0., 0., 0., 0., 0., 0., 0., 0., 0., 0.,
          0., 0., 0., 0., 0., 0., 0., 0., 0., 0., 0., 0., 0., 0., 0., 0.,
          0., 0., 0., 0., 0., 0., 0., 0., 0., 0., 0., 0., 0., 0., 0., 0.,
          0., 0., 0., 0., 0., 0., 0., 0., 0., 0., 0., 0., 0., 0., 0., 0.,
          0., 0., 0., 0., 0., 0., 0., 0., 0., 0., 0., 0., 0., 0., 0., 0.,
          0., 0., 0., 0., 0., 0., 0., 0., 0., 0., 0., 0., 0., 0., 0., 0.,
          0., 0., 0., 0., 0., 0., 0., 0., 0., 0., 0., 0., 0., 0., 0., 0.,
          0., 0., 0., 0., 0., 0., 0., 0., 0., 0., 0., 0., 0., 0., 0., 0.,
          0., 0., 0., 0., 0., 0., 0., 0., 0., 0., 0., 0., 0., 0., 0., 0.,
          0., 0., 0., 0., 0., 0., 0., 0., 0., 0., 0., 0., 0., 0.,
          2.35764799e-03, 2.39593551e-01, 1.60430241e-02, 1.38605692e-05,
          0., 0., 5.85894333e-03, 1.19846119e-02, 9.68621522e-02,
          8.02135915e-02, 5.20639956e-01, 2.55778372e-01, 1.12879900e-02,
          1.65030863e-02, 1.68759935e-02, 0., 0., 0., 8.31819634e-05,
          1.72871739e-01, 3.45512591e-02, 1.82288495e-04, 0., 0.,
          8.54106341e-03, 7.86747318e-03, 8.97911638e-02, 3.59409750e-02,
          5.20639956e-01, 5.20639956e-01, 3.09111886e-02, 1.20816361e-02,
          1.28035117e-02, 1.68372523e-02, 2.10044980e-02, 1.25259548e-01,
          7.50267059e-02, 3.82852584e-01, 1.68405250e-01, 7.79349133e-02,
          1.16902389e-01, 5.63247278e-02, 2.35117059e-02, 1.62482858e-02,
          5.72852790e-02, 3.62871103e-02, 3.16504873e-02, 1.59822986e-01,
          3.82852584e-01, 3.36417884e-01, 7.21809790e-02, 1.14968289e-02,
          1.78525653e-02, 1.52306497e-01, 7.78771564e-02, 3.82852584e-01,
          3.75263780e-01, 5.78322373e-02, 4.01122868e-02, 2.46888772e-02,
          4.65354361e-02, 3.77714932e-02, 1.48428634e-01, 1.17955826e-01,
          2.07711101e-01, 1.34009808e-01, 1.90533817e-01, 1.21447064e-01,
          7.06540048e-02, 1.93369482e-02, 1.15827722e-02, 1.64469723e-02,
          2.02425662e-02, 1.48126492e-02, 8.09157863e-02, 3.34102571e-01,
          3.34102571e-01, 8.36328715e-02, 8.72738510e-02, 4.62919027e-02,
          3.64078246e-02, 7.92517066e-02, 5.98216243e-02, 7.62334317e-02,
          2.66491115e-01, 3.34102571e-01, 1.45448238e-01, 9.67036188e-02,
          2.66559608e-02, 4.05855514e-02, 4.53386791e-02, 6.21277429e-02,
          5.41747175e-02, 2.15605065e-01, 3.14083636e-01, 1.50016338e-01,
          1.09171525e-01, 3.14336680e-02, 1.49438372e-02, 2.48420779e-02,
          4.30451259e-02, 7.05704540e-02, 3.09648007e-01, 3.34102571e-01,
          3.34102571e-01, 1.91552147e-01, 6.60669208e-02, 3.34023647e-02,
          4.39654738e-02, 6.99778646e-02, 4.24455442e-02, 1.06858738e-01,
          1.56619623e-01, 2.15286195e-01, 2.49698475e-01, 1.44797921e-01,
          8.59025642e-02, 7.52998665e-02, 3.11338484e-01, 9.05100852e-02,
          7.13970661e-02, 1.02803394e-01, 3.10180664e-01, 9.74363759e-02,
          3.15110497e-02, 1.14641553e-02, 1.67289525e-02, 3.44861038e-02,
          3.49331796e-02, 9.83488485e-02, 3.72995377e-01, 3.72995377e-01,
          1.83632538e-01, 4.95975204e-02, 5.01050912e-02, 7.50860721e-02,
          1.58611923e-01, 4.50834334e-02, 4.16222326e-02, 1.90255061e-01,
          3.72995377e-01, 1.14490174e-01, 8.75485092e-02, 5.93418442e-02,
          6.77486062e-02, 3.33048582e-01, 1.04045026e-01, 6.64041787e-02,
          9.39696059e-02, 2.77502716e-01, 1.52211562e-01, 5.23951948e-02,
          5.71391732e-02, 5.70541210e-02, 1.90757647e-01, 1.15349405e-01,
          2.37416085e-02, 6.02417402e-02, 2.53289670e-01, 2.70092785e-01,
          8.64394754e-02, 1.12931363e-01, 1.55879676e-01, 2.48628274e-01,
          5.24560325e-02, 4.47117686e-02, 1.07126653e-01, 3.48340839e-01,
          3.48340839e-01, 8.15213472e-02, 6.37683272e-02, 6.36630729e-02,
          9.53453034e-02, 8.13683271e-02, 1.07091092e-01, 6.06569350e-02,
          3.48340839e-01, 1.04271576e-01, 3.58799659e-02, 5.55435680e-02,
          5.04413098e-02, 2.34376684e-01, 1.67608321e-01, 2.67476924e-02,
          3.81670631e-02, 9.62765440e-02, 8.65265504e-02, 2.84154322e-02,
          2.97856722e-02, 1.60239294e-01, 4.04170275e-01, 1.03884585e-01,
          3.28406021e-02, 3.36817317e-02, 6.37586564e-02, 3.23847234e-01,
          4.79913317e-02, 2.11100150e-02, 1.80689096e-02, 8.49508196e-02,
          9.53075886e-02, 9.13961083e-02, 2.48807520e-02, 2.99896300e-01,
          3.93064559e-01, 9.03581232e-02, 3.45849469e-02, 2.72915304e-01,
          4.04170275e-01, 7.89561272e-02, 5.07911481e-02, 8.50058720e-03,
          1.86224118e-01, 2.90058013e-02, 1.08475890e-02, 7.04346318e-03,
          1.87168837e-01, 5.66477120e-01, 1.80616602e-02, 8.42361059e-03,
          1.00025497e-02, 2.11685151e-02, 0., 0., 0., 1.22971842e-02,
          2.94490367e-01, 0., 0., 0., 0., 1.68207139e-01, 3.97418328e-02,
          2.15354562e-02, 3.46519887e-01, 5.66477120e-01, 6.95145950e-02,
          4.45176736e-02, 1.25538628e-03, 4.17868905e-02, 0., 0.,
          7.30077561e-04, 2.29815301e-02, 2.62976468e-01, 4.55763750e-03,
          2.84838607e-03, 0., 0., 0., 0., 0., 0., 0., 0., 0., 0., 0., 0.,
          0., 0., 0., 0., 0., 0., 0., 0., 0., 0., 0., 0., 0., 0., 0., 0.,
          0., 0., 0., 0., 0., 0., 0., 0., 0., 0., 0., 0., 0., 0., 0., 0.,
          0., 0., 0., 0., 0., 0., 0., 0., 0., 0., 0., 0., 0., 0., 0., 0.,
          0., 0., 0., 0., 0., 0., 0., 0., 0., 0., 0., 0., 0., 0., 0., 0.,
          0., 0., 0., 0., 0., 0., 0., 0., 0., 0., 0., 0., 0., 0., 0., 0.,
          0., 0., 0., 0., 0., 0., 0., 0., 0., 0., 0., 0., 0., 0., 0., 0.,
          0., 0., 0., 0., 0., 0., 0., 0., 0., 0., 0., 0., 0., 0., 0., 0.,
          0., 0., 0., 0., 0., 0., 0., 0., 0., 0., 0., 0., 0., 0., 0., 0.,
          0., 0., 0., 0., 0., 0. ]
      - [ 0., 0., 0., 0., 0., 0., 0., 0., 0., 0., 0., 0., 0., 0., 0., 0.,
          0., 0., 0., 0., 0., 0., 0., 0., 0., 0., 0., 0., 0., 0., 0., 0.,
          0., 0., 0., 0., 0., 0., 0., 0., 0., 0., 0., 0., 0., 0., 0., 0.,
          0., 0., 0., 0., 0., 0., 0., 0., 0., 0., 0., 0., 0., 0., 0., 0.,
          0., 0., 0., 0., 0., 0., 0., 0., 0., 0., 0., 0., 0., 0., 0., 0.,
          0., 0., 0., 0., 0., 0., 0., 0., 0., 0., 0., 0., 0., 0., 0., 0.,
          0., 0., 0., 0., 0., 0., 0., 0., 0., 0., 0., 0., 0., 0., 0., 0.,
          0., 0., 0., 0., 0., 0., 0., 0., 0., 0., 0., 0., 0., 0., 0., 0.,
          0., 0., 0., 0., 0., 0., 0., 0., 0., 0., 0., 0., 0., 0., 0., 0.,
          0., 0., 0., 0., 0., 0., 0., 0., 0., 2.02140189e-03,
          2.46827723e-03, 0., 2.70734839e-02, 7.04327285e-01, 0., 0., 0.,
          3.78175493e-04, 0., 0., 0., 0., 0., 0., 0., 0., 0.,
          7.76463363e-04, 2.12560888e-04, 9.04270128e-05, 8.43364187e-03,
          7.04327285e-01, 0., 0., 0., 5.83157060e-04, 7.91286305e-03,
          8.30118451e-03, 5.68507006e-04, 2.70736609e-02, 5.05101860e-01,
          0., 0., 3.61397513e-04, 3.19689955e-03, 2.00502127e-02,
          1.70142967e-02, 2.98618083e-03, 1.23062078e-02, 4.76837993e-01,
          0., 0., 2.62863073e-03, 1.13983201e-02, 2.68183206e-03,
          1.50001317e-03, 2.57218862e-03, 8.43369495e-03, 5.05101860e-01,
          0., 0., 0., 2.28674919e-03, 9.39881243e-03, 3.27232503e-03,
          7.00062281e-03, 3.83349834e-03, 5.05101860e-01, 0., 0., 0.,
          8.84557609e-03, 3.69518369e-01, 2.30448365e-01, 1.27415791e-01,
          0., 5.30083030e-02, 0., 1.89016853e-02, 5.49541004e-02,
          2.70823181e-01, 4.15920019e-01, 7.87047669e-02, 1.41572490e-01,
          0., 6.90462589e-02, 0., 2.43021660e-02, 1.03541479e-01,
          3.96570832e-01, 2.29324609e-01, 5.21467142e-02, 1.36544615e-01,
          0., 1.02049157e-01, 0., 0., 0., 2.25175843e-01, 2.96005845e-01,
          3.40530202e-02, 8.84774998e-02, 0., 1.02261327e-01, 0.,
          4.90348227e-03, 3.97475343e-03, 2.95452863e-01, 3.31144184e-01,
          1.17657073e-02, 3.04830279e-02, 0., 4.64502648e-02, 0.,
          1.45043172e-02, 9.78941023e-02, 3.81077081e-01, 4.50017393e-01,
          1.38488198e-02, 2.98769940e-02, 0., 5.43338545e-02, 0.,
          5.06624356e-02, 8.49723071e-02, 5.09368896e-01, 2.38089055e-01,
          1.09211486e-02, 1.66506898e-02, 0., 8.70637372e-02, 0.,
          1.23361787e-02, 9.42093041e-03, 2.38076940e-01, 2.40148380e-01,
          1.64190289e-02, 3.05617768e-02, 0., 5.11522181e-02, 0.,
          5.60957603e-02, 3.07980552e-02, 2.41623193e-01, 3.24810922e-01,
          4.98449840e-02, 3.84973139e-02, 0., 5.31073250e-02, 0.,
          7.03102052e-02, 1.50042042e-01, 4.19911265e-01, 3.23899627e-01,
          9.42032412e-02, 2.44405419e-02, 0., 7.18298331e-02, 0.,
          1.01733543e-01, 2.71590769e-01, 5.42202592e-01, 1.43816575e-01,
          5.48011139e-02, 6.08629361e-02, 0., 4.33707014e-02,
          1.55350761e-02, 8.18857551e-02, 8.32785815e-02, 1.50345057e-01,
          1.86229631e-01, 5.33744246e-02, 3.49153765e-02, 0.,
          7.77444914e-02, 2.57842001e-02, 1.13688886e-01, 1.16382331e-01,
          1.95405096e-01, 1.47598768e-02, 2.68428447e-03, 1.64009820e-04,
          0., 4.75734323e-01, 1.64163616e-02, 4.61318158e-03,
          1.12401899e-02, 2.29301155e-02, 6.21945225e-03, 3.03323934e-04,
          0., 0., 5.05143106e-01, 3.54138613e-02, 2.55943905e-03,
          4.42898273e-03, 9.62754991e-03, 8.59331340e-03, 6.62786188e-04,
          1.27563180e-04, 0., 5.05143106e-01, 7.50269508e-03,
          5.68925310e-03, 4.19174694e-03, 8.77636205e-03, 3.73812136e-03,
          6.99978336e-05, 0., 0., 5.05143106e-01, 1.58199929e-02,
          2.31888704e-03, 1.40001881e-03, 3.76722519e-03, 1.19466928e-03,
          0., 0., 0., 7.04185188e-01, 3.16826440e-02, 1.02923694e-03,
          9.18934878e-04, 2.21628370e-03, 0., 0., 0., 0., 0., 0., 0., 0.,
          0., 1.05567602e-03, 0., 0., 0., 7.04185188e-01, 1.42290806e-02,
          4.07598505e-04, 1.15453528e-04, 1.05567602e-03, 0., 0., 0., 0.,
          0., 0., 0., 0., 0., 0., 0., 0., 0., 0., 0., 0., 0., 0., 0., 0.,
          0., 0., 0., 0., 0., 0., 0., 0., 0., 0., 0., 0., 0., 0., 0., 0.,
          0., 0., 0., 0., 0., 0., 0., 0., 0., 0., 0., 0., 0., 0., 0., 0.,
          0., 0., 0., 0., 0., 0., 0., 0., 0., 0., 0., 0., 0., 0., 0., 0.,
          0., 0., 0., 0., 0., 0., 0., 0., 0., 0., 0., 0., 0., 0., 0., 0.,
          0., 0., 0., 0., 0., 0., 0., 0., 0., 0., 0., 0., 0., 0., 0., 0.,
          0., 0., 0., 0., 0., 0., 0., 0., 0., 0., 0., 0., 0., 0., 0., 0.,
          0., 0., 0., 0., 0., 0., 0., 0., 0., 0., 0., 0., 0., 0., 0., 0.,
          0., 0., 0., 0., 0., 0., 0., 0., 0., 0., 0., 0., 0., 0., 0., 0.,
          0., 0., 0., 0., 0., 0., 0., 0., 0., 0., 0., 0., 0., 0., 0., 0.,
          0., 0., 0., 0., 0., 0., 0., 0., 0., 0., 0., 0., 0., 0., 0., 0.,
          0., 0., 0., 0., 0., 0., 0., 0., 0., 0., 0., 0., 0., 0., 0., 0.,
          0., 0., 0., 0., 0., 0., 0., 0., 0., 0., 0., 0., 0., 0., 0., 0.,
          0., 0., 0., 0., 0., 0., 0., 0., 0., 0., 0., 0., 0., 0., 0., 0.,
          0., 0., 0., 0., 0., 0., 0., 0., 0., 0., 0., 0., 0., 0., 0., 0.,
          0., 0., 0., 0., 0., 0., 0., 0., 0., 0., 0., 0., 0., 0., 0., 0.,
          0., 0., 0., 0., 0., 0., 0., 0., 0., 0., 0., 0., 0., 0., 0., 0.,
          0., 0., 0., 0., 0., 0., 0., 0., 0., 0., 0., 0., 0., 0., 0., 0.,
          0., 0., 0., 0., 0., 0., 0., 0., 0., 0., 0., 0., 0., 0.,
          3.51167168e-04, 1.33509151e-04, 4.23341669e-04, 5.12070442e-03,
          7.04558969e-01, 7.72550527e-04, 0., 0., 3.51167168e-04, 0., 0.,
          0., 0., 0., 0., 0., 0., 0., 5.70089847e-04, 1.03840452e-04,
          6.68201712e-04, 9.79819428e-03, 7.04558969e-01, 5.98515710e-03,
          1.63221543e-04, 5.45457697e-05, 5.70089847e-04, 1.08638778e-03,
          8.77640035e-04, 2.66506243e-03, 5.09188790e-03, 5.01629949e-01,
          7.63462973e-04, 4.51082524e-05, 1.50744245e-05, 1.08638778e-03,
          3.49356281e-03, 1.79098081e-03, 5.38949762e-03, 2.34030443e-03,
          4.89626408e-01, 3.47028603e-04, 5.79963234e-05, 1.93814012e-05,
          3.49356281e-03, 1.42649480e-03, 4.69006714e-04, 1.98501674e-03,
          1.01542119e-02, 5.01629949e-01, 5.91475377e-03, 1.31896150e-03,
          4.40774689e-04, 1.42649480e-03, 3.85575346e-03, 1.95742049e-03,
          6.31937524e-03, 5.00269700e-03, 5.01629949e-01, 2.68852455e-03,
          2.18166038e-03, 7.29074003e-04, 3.85575346e-03, 1.84738100e-01,
          4.90044653e-02, 1.43268853e-01, 0., 2.84597903e-01, 0.,
          2.96409096e-04, 4.18537675e-04, 1.84570760e-01, 2.84557790e-01,
          7.33161867e-02, 1.17757231e-01, 0., 2.21906200e-01, 0.,
          4.05494496e-02, 3.57303731e-02, 2.82106727e-01, 1.79189667e-01,
          8.31278190e-02, 1.98469564e-01, 0., 3.83600950e-01, 0.,
          2.69360654e-02, 1.37938093e-02, 1.76679164e-01, 2.40521505e-01,
          1.49957031e-01, 1.62391469e-01, 0., 3.50797623e-01, 0.,
          1.26133323e-01, 1.27761304e-01, 2.38426521e-01, 3.13277155e-01,
          7.67844543e-02, 7.63221234e-02, 0., 1.82063371e-01, 0.,
          7.81550407e-02, 7.80263320e-02, 3.13407272e-01, 3.46514970e-01,
          3.78350206e-02, 7.49958530e-02, 0., 1.22160263e-01, 0.,
          1.12059414e-01, 7.00270459e-02, 3.50614429e-01, 1.98544741e-01,
          9.81200263e-02, 9.54542309e-02, 0., 2.66683757e-01, 0.,
          1.48898736e-01, 1.33041352e-01, 2.02082291e-01, 2.42746025e-01,
          5.44109382e-02, 1.33835360e-01, 0., 2.64541805e-01, 0.,
          1.56648025e-01, 7.03881457e-02, 2.34362006e-01, 1.66071892e-01,
          2.12252829e-02, 5.07352203e-02, 0., 5.89602441e-02,
          3.68601494e-02, 8.91906545e-02, 5.82346581e-02, 1.72298014e-01,
          2.02431634e-01, 1.01064704e-02, 2.03032624e-02, 0.,
          5.61632365e-02, 6.16456047e-02, 9.76638719e-02, 5.66286333e-02,
          2.08775640e-01, 2.60107040e-01, 4.74448837e-02, 7.61555657e-02,
          1.40343672e-02, 1.39036775e-01, 1.06136138e-02, 1.04919434e-01,
          3.56135182e-02, 1.63130954e-01, 6.00594044e-01, 3.77113879e-01,
          1.79827183e-01, 9.48254243e-02, 1.06781125e-01, 5.75525686e-02,
          1.22742735e-01, 2.80832965e-02, 3.09150070e-01, 5.67034585e-03,
          0., 0., 2.66639952e-04, 4.90226358e-01, 4.30502929e-03,
          3.88823426e-03, 1.70371844e-03, 5.76779805e-03, 2.32385332e-03,
          0., 0., 5.86607901e-04, 4.99864668e-01, 8.52495991e-03,
          1.87342998e-03, 8.73323064e-04, 2.37544859e-03, 2.19655577e-02,
          2.87180226e-02, 1.02668274e-02, 2.36382633e-02, 4.99864668e-01,
          1.06134051e-02, 4.00386937e-03, 4.21857322e-03, 1.35308430e-02,
          1.13464585e-02, 1.48671409e-02, 3.44857946e-03, 4.18094173e-02,
          4.99864668e-01, 1.98253654e-02, 1.87368342e-03, 4.87820478e-03,
          8.37257970e-03, 5.45596471e-04, 0., 0., 5.36583830e-04,
          7.04031885e-01, 7.74690416e-03, 2.68823380e-04, 1.91283718e-04,
          5.65928174e-04, 0., 0., 0., 0., 0., 0., 0., 0., 0.,
          3.72710731e-03, 0., 1.04330329e-05, 3.54398154e-02,
          7.04031885e-01, 1.73585396e-02, 3.45630047e-04, 2.56245467e-03,
          3.40176374e-03, 0., 0., 0., 0., 0., 0., 0., 0., 0., 0., 0., 0.,
          0., 0., 0., 0., 0., 0., 0., 0., 0., 0., 0., 0., 0., 0., 0., 0.,
          0., 0., 0., 0., 0., 0., 0., 0., 0., 0., 0., 0., 0., 0., 0., 0.,
          0., 0., 0., 0., 0., 0., 0., 0., 0., 0., 0., 0., 0., 0., 0., 0.,
          0., 0., 0., 0., 0., 0., 0., 0., 0., 0., 0., 0., 0., 0., 0., 0.,
          0., 0., 0., 0., 0., 0., 0., 0., 0., 0., 0., 0., 0., 0., 0., 0.,
          0., 0., 0., 0., 0., 0., 0., 0., 0., 0., 0., 0., 0., 0., 0., 0.,
          0., 0., 0., 0., 0., 0., 0., 0., 0., 0., 0., 0., 0., 0., 0., 0.,
          0., 0., 0., 0., 0., 0., 0., 0., 0., 0., 0., 0., 0., 0., 0., 0.,
          0., 0., 0., 0., 0., 0., 0., 0., 0., 0., 0., 0., 0., 0., 0., 0.,
          0., 0., 0., 0., 0., 0., 0., 0., 0., 0., 0., 0., 0., 0., 0., 0.,
          0., 0., 0., 0., 0., 0., 0., 0., 0., 0., 0., 0., 0., 0., 0., 0.,
          0., 0., 0., 0., 0., 0., 0., 0., 0., 0., 0., 0., 0., 0., 0., 0.,
          0., 0., 0., 0., 0., 0., 0., 0., 0., 0., 0., 0., 0., 0., 0., 0.,
          0., 0., 0., 0., 0., 0., 0., 0., 0., 0., 0., 0., 0., 0., 0., 0.,
          0., 0., 0., 0., 0., 0., 0., 0., 0., 0., 0., 0., 0., 0., 0., 0.,
          0., 0., 0., 0., 0., 0., 0., 0., 0., 0., 0., 0., 0., 0., 0., 0.,
          0., 0., 0., 0., 0., 0., 0., 0., 0., 0., 0., 0., 0., 0., 0., 0.,
          0., 0., 0., 0., 0., 0., 0., 0., 0., 0., 0., 0., 0., 0., 0., 0.,
          0., 0., 0., 0., 0., 0., 3.27584974e-04, 0., 2.15973516e-04,
          7.05055846e-03, 7.04582870e-01, 4.69896710e-03, 4.41955286e-04,
          1.47693674e-04, 3.27584974e-04, 0., 0., 0., 0., 0., 0., 0., 0.,
          0., 3.72496666e-04, 0., 0., 7.86286546e-04, 7.04582870e-01,
          4.39991616e-03, 2.00888753e-04, 6.71334856e-05, 3.72496666e-04,
          9.10370261e-04, 1.88422855e-04, 9.07070003e-04, 7.11848959e-03,
          4.95638937e-01, 4.55798022e-03, 1.97489862e-03, 6.59977028e-04,
          9.10370261e-04, 4.12928453e-03, 1.71842938e-03, 5.41397696e-03,
          3.46526154e-03, 4.82182533e-01, 2.07180926e-03, 3.82932276e-03,
          1.31890655e-03, 4.13747737e-03, 1.39820867e-03, 9.80548721e-05,
          5.66748378e-04, 1.38806493e-03, 4.95638937e-01, 4.26790258e-03,
          2.71358481e-03, 9.06832283e-04, 1.39820867e-03, 8.44662189e-02,
          3.43229100e-02, 1.08931944e-01, 4.55402881e-02, 4.95638937e-01,
          1.93995563e-03, 6.20208867e-03, 4.22274973e-03, 5.52550964e-02,
          4.36976831e-03, 1.76282506e-03, 4.45924094e-03, 6.80853555e-05,
          5.99855930e-03, 0., 1.73078128e-03, 7.54534674e-04,
          4.35315445e-03, 4.41142581e-02, 4.72160727e-02, 1.10386219e-02,
          1.02128042e-03, 6.72386494e-03, 0., 6.16040453e-03,
          5.98623790e-03, 2.04956867e-02, 2.88716018e-01, 6.22093678e-02,
          2.34075472e-01, 1.38392821e-01, 9.27562416e-02, 8.85321107e-03,
          7.26958783e-03, 1.05643822e-02, 2.56181300e-01, 3.85903418e-01,
          3.85903418e-01, 3.85903418e-01, 3.29586476e-01, 7.45506510e-02,
          3.00145596e-02, 1.60485864e-01, 1.37960419e-01, 3.85903418e-01,
          6.11061379e-02, 4.08322103e-02, 8.49636085e-03, 9.91467619e-04,
          5.93191991e-03, 2.47225718e-04, 1.19696762e-02, 1.31762112e-02,
          4.79861796e-02, 4.80810702e-02, 2.21355427e-02, 5.68643911e-03,
          1.85234647e-03, 1.09337140e-02, 6.19116880e-04, 1.14109209e-02,
          1.66379269e-02, 6.21354170e-02, 2.97232836e-01, 2.97232836e-01,
          2.97232836e-01, 1.58787549e-01, 1.04817040e-01, 7.65802786e-02,
          2.97232836e-01, 2.78103620e-01, 2.97232836e-01, 2.31650367e-01,
          2.23634630e-01, 2.22817406e-01, 9.94209945e-02, 2.25745037e-01,
          1.05962172e-01, 2.23766863e-01, 2.38155261e-01, 2.97232836e-01,
          8.97756517e-02, 6.17545508e-02, 2.87736859e-02, 1.64244249e-02,
          1.63055975e-02, 2.54387944e-03, 1.85336135e-02, 1.94290765e-02,
          9.37779471e-02, 1.58405125e-01, 1.19776972e-01, 1.11599356e-01,
          6.21364005e-02, 2.55410485e-02, 1.57100670e-02, 6.32166117e-02,
          3.51396836e-02, 1.01347230e-01, 2.91704535e-01, 2.91704535e-01,
          1.43456832e-01, 1.84698611e-01, 2.56204128e-01, 6.78185225e-02,
          1.25504255e-01, 1.27095312e-01, 2.91704535e-01, 2.91704535e-01,
          2.91704535e-01, 2.91704535e-01, 2.91704535e-01, 1.29495159e-01,
          9.33675915e-02, 1.48052663e-01, 1.38277069e-01, 2.88384557e-01,
          8.10378119e-02, 1.03614956e-01, 8.51229802e-02, 1.04122870e-01,
          3.59824032e-01, 1.50005864e-02, 3.28985602e-02, 3.10702752e-02,
          5.55157140e-02, 2.61147153e-02, 4.40028720e-02, 2.72521265e-02,
          1.60408020e-01, 3.77232522e-01, 1.88925061e-02, 1.64392311e-02,
          2.09332071e-02, 4.48213927e-02, 2.14761943e-01, 3.53025824e-01,
          2.38235012e-01, 1.63894460e-01, 3.30771595e-01, 8.21468905e-02,
          1.10212341e-01, 8.86630416e-02, 1.21999331e-01, 6.05628006e-02,
          1.87674239e-01, 9.84977260e-02, 1.68571025e-01, 3.77232522e-01,
          8.35471526e-02, 1.02315724e-01, 3.72429267e-02, 8.93178582e-02,
          9.16137826e-03, 1.67752663e-03, 1.77837652e-03, 1.71305224e-01,
          6.73348010e-01, 2.06564758e-02, 1.12441294e-02, 4.45102155e-03,
          2.48182453e-02, 0., 0., 0., 0., 0., 0., 0., 0., 0.,
          1.12603810e-02, 4.85494956e-02, 2.63954774e-02, 1.81378603e-01,
          6.73348010e-01, 9.22106951e-02, 9.36481431e-02, 3.45137110e-03,
          4.99507897e-02, 0., 0., 0., 0., 0., 0., 0., 0., 0., 0., 0., 0.,
          0., 0., 0., 0., 0., 0., 0., 0., 0., 0., 0., 0., 0., 0., 0., 0.,
          0., 0., 0., 0., 0., 0., 0., 0., 0., 0., 0., 0., 0., 0., 0., 0.,
          0., 0., 0., 0., 0., 0., 0., 0., 0., 0., 0., 0., 0., 0., 0., 0.,
          0., 0., 0., 0., 0., 0., 0., 0., 0., 0., 0., 0., 0., 0., 0., 0.,
          0., 0., 0., 0., 0., 0., 0., 0., 0., 0., 0., 0., 0., 0., 0., 0.,
          0., 0., 0., 0., 0., 0., 0., 0., 0., 0., 0., 0., 0., 0., 0., 0.,
          0., 0., 0., 0., 0., 0., 0., 0., 0., 0., 0., 0., 0., 0., 0., 0.,
          0., 0., 0., 0., 0., 0., 0., 0., 0., 0., 0., 0., 0., 0., 0., 0.,
          0., 0., 0., 0., 0., 0., 0., 0., 0., 0., 0., 0., 0., 0., 0., 0.,
          0., 0., 0., 0., 0., 0., 0., 0., 0., 0., 0., 0., 0., 0., 0., 0.,
          0., 0., 0., 0., 0., 0., 0., 0., 0., 0., 0., 0., 0., 0., 0., 0.,
          0., 0., 0., 0., 0., 0., 0., 0., 0., 0., 0., 0., 0., 0., 0., 0.,
          0., 0., 0., 0., 0., 0., 0., 0., 0., 0., 0., 0., 0., 0., 0., 0.,
          0., 0., 0., 0., 0., 0., 0., 0., 0., 0., 0., 0., 0., 0., 0., 0.,
          0., 0., 0., 0., 0., 0., 0., 0., 0., 0., 0., 0., 0., 0., 0., 0.,
          0., 0., 0., 0., 0., 0., 0., 0., 0., 0., 0., 0., 0., 0., 0., 0.,
          0., 0., 0., 0., 0., 0., 0., 0., 0., 0., 0., 0., 0., 0., 0., 0.,
          0., 0., 0., 0., 0., 0., 0., 0., 0., 0., 0., 0., 0., 0., 0., 0.,
          0., 0., 0., 0., 0., 0., 5.97129343e-04, 0., 0., 0.,
          7.04515278e-01, 7.38666672e-03, 2.24005344e-04, 7.48586608e-05,
          5.97129343e-04, 0., 0., 0., 0., 0., 0., 0., 0., 0.,
          7.96703098e-04, 0., 0., 0., 7.04515278e-01, 1.50001068e-02,
          1.33651576e-03, 4.46640101e-04, 7.96703098e-04, 9.05543566e-04,
          4.42107627e-03, 2.15651486e-02, 1.23815360e-02, 3.74048769e-01,
          4.60893568e-03, 1.51468453e-03, 2.66120973e-04, 9.05543566e-04,
          1.00667864e-01, 1.39285102e-01, 3.74048769e-01, 1.14833012e-01,
          3.24128300e-01, 1.07948240e-02, 6.27314253e-03, 9.89966933e-03,
          6.04545623e-02, 7.59462419e-04, 6.54774997e-03, 7.78018683e-02,
          5.68588376e-02, 3.74048769e-01, 2.72946469e-02, 9.57422983e-03,
          3.66313994e-04, 7.59462419e-04, 6.01832457e-02, 1.64894223e-01,
          3.74048769e-01, 2.91583896e-01, 3.74048769e-01, 1.16088353e-01,
          5.24651334e-02, 2.65885126e-02, 3.75834890e-02, 1.83502361e-01,
          8.84296969e-02, 2.50361711e-01, 1.16180673e-01, 1.26825586e-01,
          2.73261797e-02, 6.31056353e-02, 3.62872258e-02, 1.70243904e-01,
          2.50361711e-01, 2.50361711e-01, 2.50361711e-01, 1.73041537e-01,
          1.06752373e-01, 5.29915914e-02, 1.78165153e-01, 1.00739315e-01,
          2.50361711e-01, 9.84576494e-02, 9.78530571e-02, 2.50361711e-01,
          1.15239903e-01, 2.50361711e-01, 1.12964496e-01, 1.63829640e-01,
          7.87130594e-02, 1.03933528e-01, 1.60465315e-01, 9.34426039e-02,
          8.73229653e-02, 5.93261756e-02, 1.30597696e-01, 1.63447797e-01,
          2.50361711e-01, 2.50361711e-01, 2.50361711e-01, 2.50973672e-01,
          2.64540493e-01, 2.64540493e-01, 1.70990139e-01, 1.01709172e-01,
          7.87013546e-02, 2.55204707e-01, 1.99300230e-01, 2.64540493e-01,
          1.06333226e-01, 1.30469561e-01, 2.28543937e-01, 1.04512349e-01,
          1.68218151e-01, 8.58388171e-02, 1.37918502e-01, 1.66922584e-01,
          1.67637348e-01, 1.56860679e-01, 1.14680782e-01, 1.19049601e-01,
          7.47278258e-02, 8.28502998e-02, 1.06501035e-01, 2.64540493e-01,
          2.64540493e-01, 2.64540493e-01, 8.94495845e-02, 6.22008815e-02,
          8.83193761e-02, 7.40723684e-02, 8.88861120e-02, 6.04552291e-02,
          1.33103862e-01, 1.17794074e-01, 1.33003414e-01, 2.13908449e-01,
          2.64359653e-01, 1.60922170e-01, 1.55174479e-01, 2.64359653e-01,
          9.94883478e-02, 1.31096929e-01, 1.85505494e-01, 1.63559228e-01,
          2.64359653e-01, 2.64359653e-01, 1.87653854e-01, 1.77775651e-01,
          9.28140059e-02, 6.83269426e-02, 8.17273557e-02, 1.05573326e-01,
          1.76872179e-01, 2.28366837e-01, 1.69603571e-01, 1.41796067e-01,
          1.17578484e-01, 2.21263170e-01, 9.68215764e-02, 1.61914185e-01,
          1.37090221e-01, 1.26887098e-01, 2.02629179e-01, 2.18199611e-01,
          1.53914973e-01, 8.76879618e-02, 1.54386759e-01, 5.59389740e-02,
          6.06032386e-02, 5.05175181e-02, 1.30753398e-01, 1.70349315e-01,
          3.22134078e-01, 1.35827616e-01, 6.93318993e-02, 3.92561406e-01,
          6.23069294e-02, 4.53522503e-02, 4.68704700e-02, 6.34183884e-02,
          4.55698483e-02, 1.63271666e-01, 5.67525774e-02, 3.62823084e-02,
          4.40873861e-01, 6.88194335e-02, 5.31180948e-02, 1.08202854e-02,
          2.41131634e-02, 7.12573156e-02, 9.89953578e-02, 6.48229793e-02,
          8.27920064e-02, 4.40873861e-01, 2.09214557e-02, 4.14369069e-03,
          1.55230425e-02, 4.68513779e-02, 2.09476706e-02, 3.52753513e-02,
          2.26111375e-02, 1.30486161e-01, 4.40873861e-01, 1.96902826e-02,
          9.07209818e-04, 3.57489381e-03, 1.42871952e-02, 5.78079885e-03,
          3.71462256e-02, 1.62196215e-02, 3.32992561e-02, 6.95164204e-01,
          6.77704066e-02, 4.73363698e-02, 1.07892335e-03, 1.20775215e-02,
          0., 0., 0., 0., 0., 0., 0., 0., 0., 4.76558553e-03,
          7.09512644e-03, 4.10119630e-03, 1.27879500e-01, 6.95164204e-01,
          1.71861071e-02, 0., 1.57985592e-03, 6.86682016e-03, 0., 0., 0.,
          0., 0., 0., 0., 0., 0., 0., 0., 0., 0., 0., 0., 0., 0., 0., 0.,
          0., 0., 0., 0., 0., 0., 0., 0., 0., 0., 0., 0., 0., 0., 0., 0.,
          0., 0., 0., 0., 0., 0., 0., 0., 0., 0., 0., 0., 0., 0., 0., 0.,
          0., 0., 0., 0., 0., 0., 0., 0., 0., 0., 0., 0., 0., 0., 0., 0.,
          0., 0., 0., 0., 0., 0., 0., 0., 0., 0., 0., 0., 0., 0., 0., 0.,
          0., 0., 0., 0., 0., 0., 0., 0., 0., 0., 0., 0., 0., 0., 0., 0.,
          0., 0., 0., 0., 0., 0., 0., 0., 0., 0., 0., 0., 0., 0., 0., 0.,
          0., 0., 0., 0., 0., 0., 0., 0., 0., 0., 0., 0., 0., 0., 0., 0.,
          0., 0., 0., 0., 0., 0., 0., 0., 0., 0., 0., 0., 0., 0., 0., 0.,
          0., 0., 0., 0., 0., 0., 0., 0., 0., 0., 0., 0., 0., 0., 0., 0.,
          0., 0., 0., 0., 0., 0., 0., 0., 0., 0., 0., 0., 0., 0., 0., 0.,
          0., 0., 0., 0., 0., 0., 0., 0., 0., 0., 0., 0., 0., 0., 0., 0.,
          0., 0., 0., 0., 0., 0., 0., 0., 0., 0., 0., 0., 0., 0., 0., 0.,
          0., 0., 0., 0., 0., 0., 0., 0., 0., 0., 0., 0., 0., 0., 0., 0.,
          0., 0., 0., 0., 0., 0., 0., 0., 0., 0., 0., 0., 0., 0., 0., 0.,
          0., 0., 0., 0., 0., 0., 0., 0., 0., 0., 0., 0., 0., 0., 0., 0.,
          0., 0., 0., 0., 0., 0., 0., 0., 0., 0., 0., 0., 0., 0., 0., 0.,
          0., 0., 0., 0., 0., 0., 0., 0., 0., 0., 0., 0., 0., 0., 0., 0.,
          0., 0., 0., 0., 0., 0., 0., 0., 0., 0., 0., 0., 0., 0., 0.,
          6.40688289e-04, 0., 0., 0., 7.04409420e-01, 1.32204872e-02,
          1.30830565e-03, 4.37212788e-04, 6.40688289e-04, 0., 0., 0., 0.,
          0., 0., 0., 0., 0., 1.26381672e-03, 0., 0., 0., 7.04409420e-01,
          2.00058520e-02, 1.35579053e-03, 4.53081389e-04, 1.26381672e-03,
          4.14094713e-04, 1.04069803e-03, 2.68793553e-02, 3.22238840e-02,
          3.41532230e-01, 5.75713627e-02, 4.31509502e-02, 3.10400617e-03,
          3.98313190e-04, 8.37549753e-03, 2.31437255e-02, 1.59850612e-01,
          1.42043024e-01, 3.41532230e-01, 2.86066145e-01, 2.97060162e-01,
          1.07909918e-01, 6.65719155e-03, 1.22854055e-03, 5.03979041e-04,
          2.63025519e-04, 7.29776127e-03, 3.41532230e-01, 4.68042456e-02,
          4.52480502e-02, 8.63247924e-03, 1.17425388e-03, 6.94605932e-02,
          5.85705228e-03, 3.26770125e-03, 3.06332391e-02, 3.41532230e-01,
          2.24595442e-01, 3.41532230e-01, 3.41532230e-01, 3.24290916e-02,
          3.50746922e-02, 3.55774909e-02, 7.63898343e-02, 6.02152050e-02,
          2.59199440e-01, 1.70239523e-01, 2.42970586e-01, 1.45159751e-01,
          3.30373198e-02, 9.90573242e-02, 3.82063352e-02, 1.65501684e-02,
          8.67737271e-03, 5.24733923e-02, 1.08669579e-01, 2.88402736e-01,
          2.88402736e-01, 1.96258366e-01, 2.88402736e-01, 1.60486139e-02,
          5.78873511e-03, 1.63060576e-02, 8.43098760e-02, 9.97701883e-02,
          2.88402736e-01, 2.88402736e-01, 2.26378039e-01, 2.88402736e-01,
          1.50440380e-01, 1.07256442e-01, 1.15004377e-02, 1.93542242e-02,
          1.87957920e-02, 1.44113436e-01, 1.90346956e-01, 2.88402736e-01,
          1.18843310e-01, 7.26952106e-02, 8.47243816e-02, 6.11945614e-02,
          4.48811874e-02, 7.63045102e-02, 2.60804266e-01, 2.60804266e-01,
          2.41436109e-01, 8.54113400e-02, 7.59272501e-02, 1.06538668e-01,
          1.31218359e-01, 5.81745207e-02, 8.53289887e-02, 2.60804266e-01,
          1.48920432e-01, 1.22452691e-01, 2.60804266e-01, 2.60804266e-01,
          2.60804266e-01, 8.85037333e-02, 2.46215537e-02, 3.27839367e-02,
          2.10523620e-01, 1.07519761e-01, 2.60804266e-01, 1.18007019e-01,
          2.18131259e-01, 2.60804266e-01, 1.89949989e-01, 3.81821096e-02,
          7.60983154e-02, 2.51906455e-01, 1.13338813e-01, 1.44164398e-01,
          1.25446305e-01, 1.27434582e-01, 2.14519799e-01, 1.95470572e-01,
          1.51933730e-01, 1.32220581e-01, 1.89820468e-01, 9.99803171e-02,
          1.33683115e-01, 1.42394125e-01, 1.27969593e-01, 1.53416783e-01,
          1.04759075e-01, 1.52842969e-01, 9.75890160e-02, 5.61939962e-02,
          5.78817017e-02, 1.40302807e-01, 1.08152241e-01, 1.53155968e-01,
          2.54819185e-01, 2.54819185e-01, 8.12436715e-02, 1.92284361e-01,
          2.54819185e-01, 1.99784353e-01, 2.04746798e-01, 2.09782258e-01,
          1.29114076e-01, 1.39150009e-01, 1.00050837e-01, 1.34692028e-01,
          2.04653352e-01, 1.38161406e-01, 2.38923073e-01, 2.54819185e-01,
          1.24795675e-01, 6.02995679e-02, 7.18130469e-02, 1.19392656e-01,
          3.64672035e-01, 6.30513206e-02, 2.05537993e-02, 3.19583304e-02,
          1.43019572e-01, 4.92540635e-02, 2.78925188e-02, 6.07339218e-02,
          2.06984952e-01, 3.64672035e-01, 8.26501474e-02, 2.13058833e-02,
          7.23022595e-03, 8.54060352e-02, 2.52527267e-01, 5.60099036e-02,
          1.17857419e-01, 1.28013700e-01, 3.39059800e-01, 1.46954611e-01,
          6.70699105e-02, 1.21104680e-01, 2.75538117e-01, 1.08063869e-01,
          2.19009984e-02, 1.65940374e-01, 1.94009528e-01, 3.64672035e-01,
          1.81842625e-01, 8.27667937e-02, 1.80989653e-02, 1.48765221e-01,
          1.44233480e-02, 8.73006415e-03, 4.25450727e-02, 2.14695647e-01,
          6.42666757e-01, 8.97531062e-02, 2.21034139e-02, 6.68495893e-04,
          4.36153002e-02, 0., 0., 0., 0., 0., 0., 0., 0., 0.,
          3.21809091e-02, 6.84943004e-03, 1.48262441e-01, 1.91886678e-01,
          6.42666757e-01, 1.92706943e-01, 8.86974484e-02, 0.,
          6.33976534e-02, 0., 0., 0., 0., 0., 0., 0., 0., 0., 0., 0., 0.,
          0., 0., 0., 0., 0., 0., 0., 0., 0., 0., 0., 0., 0., 0., 0., 0.,
          0., 0., 0., 0., 0., 0., 0., 0., 0., 0., 0., 0., 0., 0., 0., 0.,
          0., 0., 0., 0., 0., 0., 0., 0., 0., 0., 0., 0., 0., 0., 0., 0.,
          0., 0., 0., 0., 0., 0., 0., 0., 0., 0., 0., 0., 0., 0., 0., 0.,
          0., 0., 0., 0., 0., 0., 0., 0., 0., 0., 0., 0., 0., 0., 0., 0.,
          0., 0., 0., 0., 0., 0., 0., 0., 0., 0., 0., 0., 0., 0., 0., 0.,
          0., 0., 0., 0., 0., 0., 0., 0., 0., 0., 0., 0., 0., 0., 0., 0.,
          0., 0., 0., 0., 0., 0., 0., 0., 0., 0., 0., 0., 0., 0., 0., 0.,
          0., 0., 0., 0., 0., 0., 0., 0., 0., 0., 0., 0., 0., 0., 0., 0.,
          0., 0., 0., 0., 0., 0., 0., 0., 0., 0., 0., 0., 0., 0., 0., 0.,
          0., 0., 0., 0., 0., 0., 0., 0., 0., 0., 0., 0., 0., 0., 0., 0.,
          0., 0., 0., 0., 0., 0., 0., 0., 0., 0., 0., 0., 0., 0., 0., 0.,
          0., 0., 0., 0., 0., 0., 0., 0., 0., 0., 0., 0., 0., 0., 0., 0.,
          0., 0., 0., 0., 0., 0., 0., 0., 0., 0., 0., 0., 0., 0., 0., 0.,
          0., 0., 0., 0., 0., 0., 0., 0., 0., 0., 0., 0., 0., 0., 0., 0.,
          0., 0., 0., 0., 0., 0., 0., 0., 0., 0., 0., 0., 0., 0., 0., 0.,
          0., 0., 0., 0., 0., 0., 0., 0., 0., 0., 0., 0., 0., 0., 0., 0.,
          0., 0., 0., 0., 0., 0., 0., 0., 0., 0., 0., 0., 0., 0., 0., 0.,
          0., 0., 0., 0., 0., 0., 1.09970430e-03, 0., 0., 0.,
          7.04236805e-01, 2.07831431e-02, 1.78511732e-03, 6.62081758e-04,
          1.11363886e-03, 0., 0., 0., 0., 0., 0., 0., 0., 0.,
          1.08084769e-03, 0., 0., 0., 7.04236805e-01, 2.50057839e-02,
          1.62147731e-03, 1.52477296e-03, 1.28986780e-03, 3.90664209e-03,
          1.67896401e-03, 8.86246853e-04, 1.92222768e-03, 4.34112310e-01,
          2.71262154e-02, 1.42774908e-02, 7.86683708e-03, 3.86934145e-03,
          1.18770003e-01, 5.79853263e-03, 1.90818112e-03, 7.90612586e-03,
          4.32871699e-01, 6.15807660e-02, 3.07628304e-01, 3.50049525e-01,
          7.05563128e-02, 4.65443917e-03, 1.81877892e-03, 1.51858700e-03,
          0., 4.34112310e-01, 2.11305451e-02, 5.24905091e-03,
          4.66629677e-03, 4.91377804e-03, 2.09882539e-02, 5.03161037e-03,
          2.25861813e-03, 0., 4.34112310e-01, 9.78985988e-03,
          9.02246498e-03, 1.02593023e-02, 2.09570266e-02, 3.88319790e-01,
          7.35396007e-03, 1.34579232e-03, 2.93392781e-03, 1.19772237e-02,
          2.34983638e-02, 3.62742335e-01, 3.88319790e-01, 3.88319790e-01,
          3.88319790e-01, 2.02830747e-01, 1.34934098e-01, 1.04312440e-02,
          5.86240133e-03, 3.10252537e-03, 1.09351642e-01, 1.62271336e-01,
          3.88319790e-01, 4.12128605e-02, 5.69949113e-03, 1.29543210e-03,
          0., 2.79884087e-03, 4.85252938e-04, 2.14914372e-03,
          5.44539420e-03, 3.85480970e-02, 6.74532279e-02, 1.77780744e-02,
          8.75106826e-03, 1.37784891e-03, 5.06570609e-03, 9.89883905e-04,
          4.81245399e-04, 2.40912777e-03, 6.15547113e-02, 3.82154554e-01,
          3.82154554e-01, 3.82154554e-01, 7.66585767e-02, 1.15724821e-02,
          8.82473867e-03, 4.66060862e-02, 1.55469840e-02, 3.82154554e-01,
          2.01286331e-01, 3.38801026e-01, 3.64592940e-01, 1.54561684e-01,
          3.00832726e-02, 7.22526610e-02, 1.37617901e-01, 8.93485323e-02,
          2.16606542e-01, 5.59591092e-02, 3.72251421e-02, 2.23624893e-02,
          4.79304139e-03, 8.21578968e-03, 3.53938522e-04, 3.06250877e-04,
          1.00545993e-03, 4.52906564e-02, 2.80783977e-02, 3.67565043e-02,
          1.82613600e-02, 8.39578267e-03, 1.57526471e-02, 1.48928985e-02,
          2.62919627e-02, 1.29461950e-02, 1.98444277e-02, 1.26330823e-01,
          1.04522564e-01, 1.22330047e-01, 1.08621165e-01, 2.72219479e-02,
          1.79657862e-01, 2.90238351e-01, 2.08240762e-01, 1.90916538e-01,
          2.90238351e-01, 1.94625318e-01, 7.75663108e-02, 3.93887348e-02,
          6.67568445e-02, 2.00599968e-01, 2.78971225e-01, 2.90238351e-01,
          2.90238351e-01, 7.91386813e-02, 4.30777594e-02, 2.12623756e-02,
          1.19654108e-02, 1.51025327e-02, 6.83353171e-02, 1.93492308e-01,
          8.44785199e-02, 6.60934299e-02, 2.90238351e-01, 1.36838078e-01,
          3.99310589e-02, 6.54046796e-03, 1.59133170e-02, 8.17309916e-02,
          2.13518277e-01, 1.47584379e-01, 2.90238351e-01, 2.32861340e-01,
          8.34144354e-02, 6.39746264e-02, 1.03149705e-01, 3.12372416e-01,
          1.04041636e-01, 6.26280680e-02, 1.15927972e-01, 2.54820615e-01,
          1.02275126e-01, 2.80987062e-02, 8.00200254e-02, 1.84772670e-01,
          3.94542605e-01, 1.36770919e-01, 6.94035515e-02, 2.06294879e-02,
          1.11920096e-01, 2.06442058e-01, 7.47586340e-02, 1.62699316e-02,
          5.50473109e-02, 3.87536287e-01, 8.60131383e-02, 2.24828105e-02,
          4.57998887e-02, 2.44459331e-01, 8.55628923e-02, 2.67820694e-02,
          6.93428982e-03, 1.16414346e-01, 3.94542605e-01, 1.64192617e-01,
          5.24580386e-03, 8.76715407e-03, 9.84893218e-02, 2.85648275e-02,
          2.30633095e-03, 5.92538454e-02, 1.79736525e-01, 6.67021155e-01,
          1.33796230e-01, 6.86741769e-02, 6.12190925e-04, 3.40033472e-02,
          0., 0., 0., 0., 0., 0., 0., 0., 0., 2.04811767e-02,
          8.74149322e-04, 2.12706137e-03, 1.18571214e-01, 6.67021155e-01,
          1.67159259e-01, 4.30368446e-03, 7.87102617e-04, 2.54865084e-02,
          0., 0., 0., 0., 0., 0., 0., 0., 0., 0., 0., 0., 0., 0., 0., 0.,
          0., 0., 0., 0., 0., 0., 0., 0., 0., 0., 0., 0., 0., 0., 0., 0.,
          0., 0., 0., 0., 0., 0., 0., 0., 0., 0., 0., 0., 0., 0., 0., 0.,
          0., 0., 0., 0., 0., 0., 0., 0., 0., 0., 0., 0., 0., 0., 0., 0.,
          0., 0., 0., 0., 0., 0., 0., 0., 0., 0., 0., 0., 0., 0., 0., 0.,
          0., 0., 0., 0., 0., 0., 0., 0., 0., 0., 0., 0., 0., 0., 0., 0.,
          0., 0., 0., 0., 0., 0., 0., 0., 0., 0., 0., 0., 0., 0., 0., 0.,
          0., 0., 0., 0., 0., 0., 0., 0., 0., 0., 0., 0., 0., 0., 0., 0.,
          0., 0., 0., 0., 0., 0., 0., 0., 0., 0., 0., 0., 0., 0., 0., 0.,
          0., 0., 0., 0., 0., 0., 0., 0., 0., 0., 0., 0., 0., 0., 0., 0.,
          0., 0., 0., 0., 0., 0., 0., 0., 0., 0., 0., 0., 0., 0., 0., 0.,
          0., 0., 0., 0., 0., 0., 0., 0., 0., 0., 0., 0., 0., 0., 0., 0.,
          0., 0., 0., 0., 0., 0., 0., 0., 0., 0., 0., 0., 0., 0., 0., 0.,
          0., 0., 0., 0., 0., 0., 0., 0., 0., 0., 0., 0., 0., 0., 0., 0.,
          0., 0., 0., 0., 0., 0., 0., 0., 0., 0., 0., 0., 0., 0., 0., 0.,
          0., 0., 0., 0., 0., 0., 0., 0., 0., 0., 0., 0., 0., 0., 0., 0.,
          0., 0., 0., 0., 0., 0., 0., 0., 0., 0., 0., 0., 0., 0., 0., 0.,
          0., 0., 0., 0., 0., 0., 0., 0., 0., 0., 0., 0., 0., 0., 0., 0.,
          0., 0., 0., 0., 0., 0., 0., 0., 0., 0., 0., 0., 0., 0., 0., 0.,
          0., 0., 1.16371003e-03, 0., 0., 0., 7.03915775e-01,
          2.03069970e-02, 7.97746878e-04, 9.35685355e-04, 1.36360817e-03,
          0., 0., 0., 0., 0., 0., 0., 0., 0., 1.18808693e-03, 0., 0., 0.,
          7.03915775e-01, 3.92293334e-02, 7.62996613e-04, 3.81901651e-03,
          2.44189706e-03, 5.98192634e-03, 5.56856976e-04, 8.18472938e-04,
          0., 5.00391364e-01, 2.03657467e-02, 3.26567865e-03,
          3.84328701e-03, 6.31245691e-03, 2.25564018e-02, 1.53515127e-03,
          1.74953893e-03, 0., 4.88462806e-01, 9.25715826e-03,
          5.28777670e-03, 6.09482219e-03, 2.28489414e-02, 6.33710902e-03,
          1.08392058e-04, 3.24349123e-04, 0., 5.00391364e-01,
          3.95296477e-02, 5.33737941e-03, 9.61284433e-03, 8.68626870e-03,
          2.30329111e-02, 1.23556517e-03, 2.00758455e-03, 0.,
          5.00391364e-01, 1.81232933e-02, 6.51852973e-03, 1.23539027e-02,
          2.58665383e-02, 3.48690450e-01, 3.83356251e-02, 3.81348692e-02,
          7.33289693e-04, 4.13383804e-02, 8.80938023e-03, 2.21274216e-02,
          5.04924618e-02, 3.46080691e-01, 3.03775877e-01, 1.76482916e-01,
          1.98233113e-01, 3.59016359e-02, 8.14655051e-02, 1.93806328e-02,
          2.07903683e-02, 3.93638611e-02, 2.71670520e-01, 3.34758997e-01,
          3.47754136e-02, 6.16477951e-02, 1.61323720e-03, 2.32401099e-02,
          1.05272199e-03, 1.87116563e-02, 8.08551982e-02, 3.49435717e-01,
          3.16526234e-01, 1.04157649e-01, 1.73672289e-01, 5.64148650e-02,
          5.92776611e-02, 1.29204232e-03, 3.00845429e-02, 4.32765000e-02,
          3.12068373e-01, 1.93449557e-01, 2.37591460e-01, 3.35465729e-01,
          8.45257565e-02, 1.10082515e-01, 5.24546066e-03, 1.30440192e-02,
          1.21418266e-02, 1.49425343e-01, 1.50355041e-01, 2.38566101e-01,
          3.00543427e-01, 6.46074340e-02, 2.52584159e-01, 3.33382632e-03,
          3.06332298e-02, 1.68962199e-02, 1.15885295e-01, 2.26318285e-01,
          1.51837662e-01, 2.94110894e-01, 1.09591521e-01, 8.68346840e-02,
          3.49697337e-04, 3.84576693e-02, 1.27831474e-02, 2.11425275e-01,
          2.04836726e-01, 1.99814141e-01, 2.90243447e-01, 8.13665539e-02,
          2.31938586e-01, 0., 4.61487547e-02, 1.53704407e-02,
          1.80577621e-01, 1.25714675e-01, 1.09611914e-01, 1.18140981e-01,
          2.64286213e-02, 1.17691658e-01, 2.78933588e-02, 1.33491904e-01,
          6.21576309e-02, 1.17808551e-01, 4.88477170e-01, 2.42900819e-01,
          1.51292890e-01, 5.36445901e-02, 1.37624264e-01, 5.52261248e-02,
          1.88884154e-01, 1.24326624e-01, 5.37780225e-01, 8.66477713e-02,
          1.09608278e-01, 1.26044214e-01, 4.49469201e-02, 1.62477121e-01,
          3.71706556e-03, 7.00844498e-03, 1.72827404e-03, 6.82377443e-02,
          1.10580705e-01, 1.72024488e-01, 1.68511063e-01, 9.80919749e-02,
          2.51994818e-01, 1.63915493e-02, 1.03891548e-02, 1.76603766e-03,
          5.06324358e-02, 5.18360212e-02, 2.60558799e-02, 1.31759876e-02,
          1.48568973e-02, 4.68336672e-01, 2.65315380e-02, 4.69398405e-03,
          6.27963757e-03, 6.58635050e-02, 2.00702287e-02, 1.01383282e-02,
          5.57060959e-03, 2.28611697e-02, 5.03467321e-01, 5.37013784e-02,
          7.23355683e-04, 1.22986501e-03, 2.65598446e-02, 8.64795782e-03,
          1.81249678e-02, 1.54160568e-02, 1.82032809e-02, 5.03467321e-01,
          7.85875833e-04, 1.55981560e-03, 6.79476827e-04, 2.47376226e-03,
          3.63052054e-03, 7.94849172e-03, 5.36359847e-03, 2.42955890e-02,
          5.03467321e-01, 2.09003992e-04, 1.13592611e-03, 4.97216766e-04,
          1.18273508e-03, 3.26724630e-03, 1.13357278e-03, 1.24190992e-03,
          1.90082863e-02, 7.03555405e-01, 4.66727056e-02, 1.25423583e-04,
          1.39195370e-04, 5.31591335e-03, 0., 0., 0., 0., 0., 0., 0., 0.,
          0., 8.79224972e-04, 1.00884261e-03, 6.99255324e-04,
          2.02995632e-02, 7.03555405e-01, 1.50959269e-04, 5.43502218e-04,
          1.81628930e-04, 4.70290543e-04, 0., 0., 0., 0., 0., 0., 0., 0.,
          0., 0., 0., 0., 0., 0., 0., 0., 0., 0., 0., 0., 0., 0., 0., 0.,
          0., 0., 0., 0., 0., 0., 0., 0., 0., 0., 0., 0., 0., 0., 0., 0.,
          0., 0., 0., 0., 0., 0., 0., 0., 0., 0., 0., 0., 0., 0., 0., 0.,
          0., 0., 0., 0., 0., 0., 0., 0., 0., 0., 0., 0., 0., 0., 0., 0.,
          0., 0., 0., 0., 0., 0., 0., 0., 0., 0., 0., 0., 0., 0., 0., 0.,
          0., 0., 0., 0., 0., 0., 0., 0., 0., 0., 0., 0., 0., 0., 0., 0.,
          0., 0., 0., 0., 0., 0., 0., 0., 0., 0., 0., 0., 0., 0., 0., 0.,
          0., 0., 0., 0., 0., 0., 0., 0., 0., 0., 0., 0., 0., 0., 0., 0.,
          0., 0., 0., 0., 0., 0., 0., 0., 0., 0., 0., 0., 0., 0., 0., 0.,
          0. ]
      - [ 0., 0., 0., 0., 0., 0., 0., 0., 0., 0., 0., 0., 0., 0., 0., 0.,
          0., 0., 0., 0., 0., 0., 0., 0., 0., 0., 0., 0., 0., 0., 0., 0.,
          0., 0., 0., 0., 0., 0., 0., 0., 0., 0., 0., 0., 0., 0., 0., 0.,
          0., 0., 0., 0., 0., 0., 0., 0., 0., 0., 0., 0., 0., 0., 0., 0.,
          0., 0., 0., 0., 0., 0., 0., 0., 0., 0., 0., 0., 0., 0., 0., 0.,
          0., 0., 0., 0., 0., 0., 0., 0., 0., 0., 0., 0., 0., 0., 0., 0.,
          0., 0., 0., 0., 0., 0., 0., 0., 0., 0., 0., 0., 0., 0., 0., 0.,
          0., 0., 0., 0., 0., 0., 0., 0., 0., 0., 0., 0., 0., 0., 0., 0.,
          0., 0., 0., 0., 0., 0., 0., 0., 0., 0., 0., 0., 0., 0., 0., 0.,
          0., 0., 0., 0., 0., 0., 0., 0., 0., 0., 0., 0., 0.,
          7.04615593e-01, 0., 0., 0., 0., 0., 0., 0., 0., 0., 0., 0., 0.,
          0., 0., 0., 0., 0., 7.04615593e-01, 0., 0., 0., 0., 0., 0., 0.,
          0., 4.98705119e-01, 0., 0., 0., 0., 1.13443726e-04,
          5.22554154e-04, 1.78533304e-03, 3.14160390e-03, 4.98705119e-01,
          1.02368544e-03, 7.31752778e-04, 1.86706442e-04, 8.19211346e-05,
          0., 0., 7.76516972e-05, 1.88904902e-04, 4.98705119e-01, 0., 0.,
          0., 0., 1.16071815e-03, 2.47114967e-03, 1.11836791e-02,
          6.47802465e-03, 4.98705119e-01, 1.04614836e-03, 5.32267033e-04,
          1.61379910e-04, 1.09692267e-03, 5.57353646e-02, 3.58216316e-02,
          3.53884548e-02, 5.64946644e-02, 3.66728216e-01, 4.00598273e-02,
          4.16477025e-02, 4.03982401e-02, 1.41821736e-02, 2.03410000e-01,
          1.08060762e-01, 8.38901550e-02, 9.83200818e-02, 2.10383296e-01,
          7.03383535e-02, 6.22838028e-02, 9.85558257e-02, 9.21007320e-02,
          5.01353145e-02, 5.63103817e-02, 7.24694356e-02, 4.97574806e-02,
          3.66728216e-01, 1.15089519e-02, 1.52427955e-02, 1.51700741e-02,
          3.59084047e-02, 3.66728216e-01, 2.87169904e-01, 2.34163702e-01,
          3.66728216e-01, 2.97957987e-01, 2.74530053e-02, 5.09282611e-02,
          1.09024361e-01, 2.16154188e-01, 6.53323010e-02, 9.82043520e-02,
          7.66857266e-02, 1.50740117e-01, 2.16315448e-01, 3.73545028e-02,
          3.63599509e-03, 1.13740172e-02, 2.18594279e-02, 2.79996246e-01,
          2.79996246e-01, 1.48109585e-01, 2.07842335e-01, 2.79996246e-01,
          7.42190555e-02, 1.25793619e-02, 2.48913020e-02, 2.28373483e-01,
          6.34969026e-02, 5.48197441e-02, 1.89297557e-01, 2.79996246e-01,
          2.79996246e-01, 4.45283167e-02, 1.77903976e-02, 6.28278852e-02,
          5.40184975e-02, 2.14174435e-01, 1.15923114e-01, 2.37784281e-01,
          2.79996246e-01, 2.79996246e-01, 9.94400457e-02, 7.84555748e-02,
          1.41064137e-01, 1.72305271e-01, 2.90284783e-01, 1.27338395e-01,
          5.06111048e-02, 5.24290502e-02, 7.04281628e-02, 3.50698978e-02,
          5.61772250e-02, 4.84233126e-02, 2.90284783e-01, 2.90284783e-01,
          1.40276536e-01, 3.27164829e-02, 4.73874547e-02, 1.68124363e-01,
          1.09276019e-01, 1.09914929e-01, 1.45436853e-01, 2.90284783e-01,
          2.21746519e-01, 7.82113820e-02, 1.09801613e-01, 1.23847537e-01,
          1.65413737e-01, 5.64598292e-02, 8.16840008e-02, 1.13338098e-01,
          1.65341571e-01, 2.08292276e-01, 8.39076266e-02, 1.56821758e-01,
          2.19086468e-01, 2.90284783e-01, 2.90284783e-01, 1.34534925e-01,
          2.16111630e-01, 1.18100449e-01, 3.02842379e-01, 8.56313854e-02,
          2.40575355e-02, 4.12831344e-02, 3.02842379e-01, 2.07986385e-01,
          1.84253976e-01, 2.67661631e-01, 3.02842379e-01, 1.94483176e-02,
          2.34104204e-03, 4.71752603e-03, 1.72351561e-02, 3.02842379e-01,
          9.05003622e-02, 8.56169611e-02, 1.24172032e-01, 9.23897773e-02,
          1.07699044e-01, 5.20185940e-02, 8.78348872e-02, 1.60668999e-01,
          3.02842379e-01, 3.02842379e-01, 1.34111270e-01, 2.21730381e-01,
          7.23485351e-02, 7.99692702e-03, 6.84001343e-03, 1.57358050e-02,
          5.00540845e-02, 3.02842379e-01, 1.63415745e-01, 3.21864635e-02,
          7.07695261e-02, 2.24284977e-02, 0., 0., 0., 0., 7.04615593e-01,
          0., 0., 0., 0., 0., 0., 0., 0., 0., 0., 0., 0., 0., 0., 0., 0.,
          0., 7.04615593e-01, 0., 0., 0., 0., 0., 0., 0., 0., 0., 0., 0.,
          0., 0., 0., 0., 0., 0., 0., 0., 0., 0., 0., 0., 0., 0., 0., 0.,
          0., 0., 0., 0., 0., 0., 0., 0., 0., 0., 0., 0., 0., 0., 0., 0.,
          0., 0., 0., 0., 0., 0., 0., 0., 0., 0., 0., 0., 0., 0., 0., 0.,
          0., 0., 0., 0., 0., 0., 0., 0., 0., 0., 0., 0., 0., 0., 0., 0.,
          0., 0., 0., 0., 0., 0., 0., 0., 0., 0., 0., 0., 0., 0., 0., 0.,
          0., 0., 0., 0., 0., 0., 0., 0., 0., 0., 0., 0., 0., 0., 0., 0.,
          0., 0., 0., 0., 0., 0., 0., 0., 0., 0., 0., 0., 0., 0., 0., 0.,
          0., 0., 0., 0., 0., 0., 0., 0., 0., 0., 0., 0., 0., 0., 0., 0.,
          0., 0., 0., 0., 0., 0., 0., 0., 0., 0., 0., 0., 0., 0., 0., 0.,
          0., 0., 0., 0., 0., 0., 0., 0., 0., 0., 0., 0., 0., 0., 0., 0.,
          0., 0., 0., 0., 0., 0., 0., 0., 0., 0., 0., 0., 0., 0., 0., 0.,
          0., 0., 0., 0., 0., 0., 0., 0., 0., 0., 0., 0., 0., 0., 0., 0.,
          0., 0., 0., 0., 0., 0., 0., 0., 0., 0., 0., 0., 0., 0., 0., 0.,
          0., 0., 0., 0., 0., 0., 0., 0., 0., 0., 0., 0., 0., 0., 0., 0.,
          0., 0., 0., 0., 0., 0., 0., 0., 0., 0., 0., 0., 0., 0., 0., 0.,
          0., 0., 0., 0., 0., 0., 0., 0., 0., 0., 0., 0., 0., 0., 0., 0.,
          0., 0., 0., 0., 0., 0., 0., 0., 0., 0., 0., 0., 0., 0., 0., 0.,
          0., 0., 0., 0., 0., 0., 0., 0., 0., 0., 0., 0., 0., 0., 0., 0.,
          0., 0., 0., 0., 0., 0., 0., 0., 0., 0., 0., 0., 0., 0., 0.,
          7.04615593e-01, 0., 0., 0., 0., 0., 0., 0., 0., 0., 0., 0., 0.,
          0., 0., 0., 0., 0., 7.04615593e-01, 0., 0., 0., 0.,
          4.14616552e-05, 2.84194190e-04, 3.70746537e-04, 1.36420911e-03,
          4.94451672e-01, 4.47327533e-04, 0., 0., 0., 6.40962692e-03,
          9.25992336e-03, 1.39372898e-02, 1.50320185e-02, 4.94451672e-01,
          3.22809978e-03, 1.31915486e-03, 5.70024177e-03, 9.31274891e-03,
          5.33078455e-05, 5.12937957e-04, 1.88048335e-03, 1.67671591e-02,
          4.94451672e-01, 3.46651766e-03, 0., 0., 0., 1.07535822e-02,
          1.93551183e-02, 3.39817367e-02, 1.16474301e-01, 4.94451672e-01,
          1.72562320e-02, 8.00036453e-03, 1.81971323e-02, 1.58103481e-02,
          2.09336802e-02, 3.75142954e-02, 5.74191958e-02, 6.22488484e-02,
          1.26746818e-01, 2.07001977e-02, 1.07265739e-02, 1.44278314e-02,
          2.26529296e-02, 2.17152685e-01, 2.24621907e-01, 2.48578802e-01,
          2.65561521e-01, 2.46175960e-01, 7.03302920e-02, 5.14125079e-02,
          1.07868038e-01, 1.58527806e-01, 3.86405997e-02, 4.67707366e-02,
          8.71218368e-02, 1.51977316e-01, 2.38833532e-01, 6.43435493e-02,
          4.86906357e-02, 6.50134310e-02, 5.20952083e-02, 2.65561521e-01,
          2.39717722e-01, 2.65561521e-01, 2.65561521e-01, 2.65561521e-01,
          1.75848484e-01, 1.74388841e-01, 2.44625330e-01, 2.65561521e-01,
          1.13163047e-01, 1.24166407e-01, 1.68168411e-01, 2.54766077e-01,
          2.11031169e-01, 3.32583003e-02, 4.05480377e-02, 1.32315233e-01,
          1.08222999e-01, 1.26207754e-01, 1.33146673e-01, 1.42240390e-01,
          1.89580336e-01, 2.16045275e-01, 4.81127128e-02, 1.02445163e-01,
          1.89681947e-01, 1.56982541e-01, 2.07333878e-01, 1.90531641e-01,
          1.71212897e-01, 1.75618410e-01, 1.77847505e-01, 9.44416821e-02,
          8.22135732e-02, 1.79735303e-01, 2.49184445e-01, 2.54766077e-01,
          2.23736957e-01, 1.19567558e-01, 8.26766267e-02, 1.64283022e-01,
          1.01086512e-01, 7.30563328e-02, 2.54766077e-01, 2.54766077e-01,
          1.54163063e-01, 8.27281103e-02, 1.09039687e-01, 1.62102059e-01,
          1.68818966e-01, 4.00440358e-02, 5.70073389e-02, 8.22665244e-02,
          9.70131531e-02, 1.18161291e-01, 6.17293343e-02, 1.51530877e-01,
          2.76338756e-01, 2.76338756e-01, 2.76338756e-01, 5.65925464e-02,
          5.42625301e-02, 2.41172872e-02, 2.56823897e-01, 9.99507904e-02,
          1.04201585e-01, 2.21413031e-01, 2.31399998e-01, 7.08251819e-02,
          3.83773185e-02, 2.00325832e-01, 2.76338756e-01, 1.11466184e-01,
          7.91833699e-02, 1.29276246e-01, 2.76338756e-01, 2.76338756e-01,
          2.76338756e-01, 1.30990371e-01, 3.83465253e-02, 8.30210894e-02,
          2.16392092e-02, 1.44657111e-02, 6.39793649e-02, 1.77577704e-01,
          3.62150878e-01, 3.62150878e-01, 4.39962409e-02, 2.82231215e-02,
          3.69224628e-03, 7.30589207e-04, 1.82083505e-03, 1.42663773e-02,
          5.36233708e-02, 3.62150878e-01, 1.26935408e-01, 3.46022681e-03,
          5.74621721e-04, 1.35834707e-04, 4.63767648e-02, 4.02565859e-02,
          5.48974462e-02, 2.63122439e-01, 3.62150878e-01, 3.62150878e-01,
          1.96047470e-01, 1.50453653e-02, 2.45467518e-02, 2.00137286e-03,
          4.72499523e-03, 1.09651517e-02, 1.26591355e-01, 3.62150878e-01,
          1.32890046e-01, 4.57035750e-02, 1.12946820e-03, 2.11817358e-04,
          0., 0., 0., 0., 7.04615593e-01, 0., 0., 0., 0., 0., 0., 0., 0.,
          0., 0., 0., 0., 0., 0., 0., 0., 0., 7.04615593e-01, 0., 0., 0.,
          0., 0., 0., 0., 0., 0., 0., 0., 0., 0., 0., 0., 0., 0., 0., 0.,
          0., 0., 0., 0., 0., 0., 0., 0., 0., 0., 0., 0., 0., 0., 0., 0.,
          0., 0., 0., 0., 0., 0., 0., 0., 0., 0., 0., 0., 0., 0., 0., 0.,
          0., 0., 0., 0., 0., 0., 0., 0., 0., 0., 0., 0., 0., 0., 0., 0.,
          0., 0., 0., 0., 0., 0., 0., 0., 0., 0., 0., 0., 0., 0., 0., 0.,
          0., 0., 0., 0., 0., 0., 0., 0., 0., 0., 0., 0., 0., 0., 0., 0.,
          0., 0., 0., 0., 0., 0., 0., 0., 0., 0., 0., 0., 0., 0., 0., 0.,
          0., 0., 0., 0., 0., 0., 0., 0., 0., 0., 0., 0., 0., 0., 0., 0.,
          0., 0., 0., 0., 0., 0., 0., 0., 0., 0., 0., 0., 0., 0., 0., 0.,
          0., 0., 0., 0., 0., 0., 0., 0., 0., 0., 0., 0., 0., 0., 0., 0.,
          0., 0., 0., 0., 0., 0., 0., 0., 0., 0., 0., 0., 0., 0., 0., 0.,
          0., 0., 0., 0., 0., 0., 0., 0., 0., 0., 0., 0., 0., 0., 0., 0.,
          0., 0., 0., 0., 0., 0., 0., 0., 0., 0., 0., 0., 0., 0., 0., 0.,
          0., 0., 0., 0., 0., 0., 0., 0., 0., 0., 0., 0., 0., 0., 0., 0.,
          0., 0., 0., 0., 0., 0., 0., 0., 0., 0., 0., 0., 0., 0., 0., 0.,
          0., 0., 0., 0., 0., 0., 0., 0., 0., 0., 0., 0., 0., 0., 0., 0.,
          0., 0., 0., 0., 0., 0., 0., 0., 0., 0., 0., 0., 0., 0., 0., 0.,
          0., 0., 0., 0., 0., 0., 0., 0., 0., 0., 0., 0., 0., 0., 0., 0.,
          0., 0., 0., 0., 0., 0., 0., 0., 0., 0., 0., 0., 0., 0., 0., 0.,
          0., 0., 0., 0., 0., 0., 0., 7.04615593e-01, 0., 0., 0., 0., 0.,
          0., 0., 0., 0., 0., 0., 0., 0., 0., 0., 0., 0., 7.04615593e-01,
          0., 0., 0., 0., 5.53332386e-04, 1.62691053e-04, 2.21709581e-03,
          2.74422020e-02, 4.85469669e-01, 5.93820726e-03, 1.21989753e-03,
          2.61258916e-04, 2.29513319e-03, 1.90608390e-02, 1.50853144e-02,
          4.50798012e-02, 1.44189179e-01, 4.85469669e-01, 4.20661457e-02,
          2.38145664e-02, 2.57168133e-02, 3.14822607e-02, 2.61776801e-03,
          2.60217901e-04, 9.89381922e-04, 1.36638498e-02, 4.85469669e-01,
          8.39889795e-03, 2.72704964e-03, 5.74769627e-04, 6.69158902e-03,
          6.31950349e-02, 2.43510567e-02, 3.97850387e-02, 7.22538531e-02,
          4.85469669e-01, 4.92163710e-02, 2.46272068e-02, 3.29898074e-02,
          9.16510597e-02, 7.00152889e-02, 5.48968166e-02, 8.68196711e-02,
          1.09296359e-01, 2.09496498e-01, 7.35746473e-02, 6.08650595e-02,
          7.66471401e-02, 5.85248433e-02, 2.51577258e-01, 1.58464029e-01,
          2.30045840e-01, 1.84699386e-01, 2.51577258e-01, 9.33571607e-02,
          1.17880091e-01, 2.21978605e-01, 2.45368645e-01, 1.03393577e-01,
          7.91116431e-02, 1.24860384e-01, 1.01415165e-01, 2.51577258e-01,
          1.07481144e-01, 6.03551641e-02, 1.24573529e-01, 1.17972240e-01,
          2.15040043e-01, 2.34334886e-01, 2.51577258e-01, 1.85993418e-01,
          2.51577258e-01, 1.25822082e-01, 1.10913515e-01, 2.51577258e-01,
          1.80165038e-01, 2.04616651e-01, 1.37275204e-01, 1.93428084e-01,
          9.62384865e-02, 6.75855875e-02, 4.37599942e-02, 5.76312095e-02,
          1.21477045e-01, 2.43491665e-01, 2.68515021e-01, 1.19858563e-01,
          1.18786097e-01, 6.22849390e-02, 5.35770506e-02, 6.67804033e-02,
          8.01993534e-02, 2.68515021e-01, 2.68515021e-01, 2.26239651e-01,
          1.74572468e-01, 1.89732179e-01, 9.10720006e-02, 9.92942974e-02,
          3.79628018e-02, 6.62542507e-02, 1.33345276e-01, 1.87445775e-01,
          2.35644996e-01, 2.54871786e-01, 1.81668326e-01, 1.43648669e-01,
          6.66158050e-02, 7.72275552e-02, 1.42730594e-01, 2.68515021e-01,
          2.68515021e-01, 2.07108691e-01, 4.75438647e-02, 6.58044666e-02,
          1.16774052e-01, 1.29690379e-01, 1.17341973e-01, 1.11997843e-01,
          2.41270468e-01, 2.41270468e-01, 1.19320512e-01, 1.09449916e-01,
          1.13779195e-01, 1.94589540e-01, 2.41270468e-01, 2.41270468e-01,
          2.13871241e-01, 6.58692047e-02, 1.16926283e-01, 6.12903796e-02,
          9.56217796e-02, 1.39011815e-01, 2.11677521e-01, 2.06723034e-01,
          1.99295059e-01, 1.72220513e-01, 1.66741073e-01, 1.47474036e-01,
          5.43245189e-02, 8.65385309e-02, 2.21716627e-01, 2.41270468e-01,
          2.41270468e-01, 2.41270468e-01, 1.92026690e-01, 6.26173988e-02,
          6.31475225e-02, 1.07854657e-01, 1.25250325e-01, 8.67088959e-02,
          2.29226589e-01, 3.17753226e-01, 3.17753226e-01, 2.98237741e-01,
          2.86318623e-02, 5.10566607e-02, 7.86601845e-03, 1.92920975e-02,
          1.98412836e-02, 1.03873834e-01, 3.17753226e-01, 1.41509891e-01,
          8.66666436e-02, 3.93127557e-03, 1.31557684e-03, 1.40340760e-01,
          1.16682276e-01, 1.74023971e-01, 1.63752124e-01, 3.17753226e-01,
          3.17753226e-01, 2.00616568e-01, 8.04557651e-02, 7.02567324e-02,
          8.06019679e-02, 2.53763925e-02, 3.25329043e-02, 2.30510067e-02,
          3.17753226e-01, 1.20566398e-01, 7.17934668e-02, 2.87259594e-02,
          2.80001350e-02, 0., 0., 0., 0., 7.04615593e-01, 0., 0., 0., 0.,
          0., 0., 0., 0., 0., 0., 0., 0., 0., 0., 0., 0., 0.,
          7.04615593e-01, 0., 0., 0., 0., 0., 0., 0., 0., 0., 0., 0., 0.,
          0., 0., 0., 0., 0., 0., 0., 0., 0., 0., 0., 0., 0., 0., 0., 0.,
          0., 0., 0., 0., 0., 0., 0., 0., 0., 0., 0., 0., 0., 0., 0., 0.,
          0., 0., 0., 0., 0., 0., 0., 0., 0., 0., 0., 0., 0., 0., 0., 0.,
          0., 0., 0., 0., 0., 0., 0., 0., 0., 0., 0., 0., 0., 0., 0., 0.,
          0., 0., 0., 0., 0., 0., 0., 0., 0., 0., 0., 0., 0., 0., 0., 0.,
          0., 0., 0., 0., 0., 0., 0., 0., 0., 0., 0., 0., 0., 0., 0., 0.,
          0., 0., 0., 0., 0., 0., 0., 0., 0., 0., 0., 0., 0., 0., 0., 0.,
          0., 0., 0., 0., 0., 0., 0., 0., 0., 0., 0., 0., 0., 0., 0., 0.,
          0., 0., 0., 0., 0., 0., 0., 0., 0., 0., 0., 0., 0., 0., 0., 0.,
          0., 0., 0., 0., 0., 0., 0., 0., 0., 0., 0., 0., 0., 0., 0., 0.,
          0., 0., 0., 0., 0., 0., 0., 0., 0., 0., 0., 0., 0., 0., 0., 0.,
          0., 0., 0., 0., 0., 0., 0., 0., 0., 0., 0., 0., 0., 0., 0., 0.,
          0., 0., 0., 0., 0., 0., 0., 0., 0., 0., 0., 0., 0., 0., 0., 0.,
          0., 0., 0., 0., 0., 0., 0., 0., 0., 0., 0., 0., 0., 0., 0., 0.,
          0., 0., 0., 0., 0., 0., 0., 0., 0., 0., 0., 0., 0., 0., 0., 0.,
          0., 0., 0., 0., 0., 0., 0., 0., 0., 0., 0., 0., 0., 0., 0., 0.,
          0., 0., 0., 0., 0., 0., 0., 0., 0., 0., 0., 0., 0., 0., 0., 0.,
          0., 0., 0., 0., 0., 0., 0., 0., 0., 0., 0., 0., 0., 0., 0., 0.,
          0., 0., 0., 0., 0., 0., 0., 0., 0., 0., 0., 0., 0., 0.,
          7.04615593e-01, 0., 0., 0., 0., 0., 0., 0., 0., 0., 0., 0., 0.,
          0., 0., 0., 0., 0., 7.04615593e-01, 0., 0., 0., 0.,
          1.20242266e-03, 1.08834378e-04, 1.75640802e-04, 1.59665442e-03,
          3.99562895e-01, 7.97844026e-03, 5.56658837e-04, 1.14546783e-04,
          1.60696707e-03, 3.79768051e-02, 2.68727280e-02, 2.92846076e-02,
          4.49642092e-02, 3.99562895e-01, 3.69182080e-02, 2.21647453e-02,
          1.76624637e-02, 4.27398458e-02, 2.12514587e-02, 2.41717473e-02,
          6.88542798e-02, 9.97209083e-03, 3.99562895e-01, 2.76091602e-02,
          1.26630422e-02, 6.97661936e-03, 2.70657726e-02, 2.04688549e-01,
          3.18208337e-01, 3.99562895e-01, 8.64302963e-02, 3.99562895e-01,
          9.26546603e-02, 6.11389801e-02, 6.48479834e-02, 1.17966391e-01,
          8.93167853e-02, 5.13598695e-02, 6.69804662e-02, 6.98421076e-02,
          1.61804453e-01, 4.43360656e-02, 4.40332256e-02, 6.65076151e-02,
          8.32426026e-02, 2.41952285e-01, 1.50273323e-01, 1.20382659e-01,
          7.88569897e-02, 1.36302099e-01, 5.83566166e-02, 8.30916613e-02,
          1.08999878e-01, 1.21363744e-01, 3.18237931e-01, 3.18237931e-01,
          3.18237931e-01, 8.13126341e-02, 9.74981710e-02, 9.14958492e-02,
          7.13864788e-02, 1.22133367e-01, 1.91122577e-01, 3.18237931e-01,
          3.18237931e-01, 1.97597370e-01, 3.55993174e-02, 3.34945843e-02,
          7.36240596e-02, 1.36709690e-01, 1.54419497e-01, 3.18237931e-01,
          2.28918001e-01, 1.42312288e-01, 7.84035251e-02, 3.53126712e-02,
          7.08196089e-02, 5.33524156e-02, 1.18859857e-01, 5.79504482e-02,
          1.07089937e-01, 2.17880413e-01, 2.37818256e-01, 1.27705857e-01,
          1.13594294e-01, 7.94687420e-02, 6.29480332e-02, 1.27405956e-01,
          1.10691912e-01, 2.52709150e-01, 2.85592645e-01, 2.21490577e-01,
          1.46243826e-01, 1.94544736e-02, 5.50827757e-02, 4.74074706e-02,
          1.86221540e-01, 1.16198532e-01, 2.81025082e-01, 2.85592645e-01,
          1.58116773e-01, 2.82769233e-01, 1.73288271e-01, 9.74415466e-02,
          7.64014646e-02, 1.40137374e-01, 1.62800506e-01, 2.85592645e-01,
          8.92688110e-02, 1.20235384e-01, 1.65428221e-01, 2.41751999e-01,
          1.90604866e-01, 8.83063599e-02, 5.01769930e-02, 6.80810362e-02,
          1.63114384e-01, 6.18939251e-02, 1.35162234e-01, 2.43004322e-01,
          2.43004322e-01, 2.04179704e-01, 1.03766732e-01, 6.54928535e-02,
          5.44142015e-02, 9.11570787e-02, 2.43004322e-01, 7.11625516e-02,
          2.43004322e-01, 2.43004322e-01, 1.41389430e-01, 1.00261927e-01,
          7.39691034e-02, 1.68607280e-01, 2.43004322e-01, 1.67379111e-01,
          1.66037038e-01, 2.43004322e-01, 2.17633650e-01, 1.48523629e-01,
          1.72353670e-01, 8.52833763e-02, 1.55882522e-01, 2.29522586e-01,
          1.65203884e-01, 2.08704278e-01, 2.72901952e-01, 2.24334091e-01,
          2.72901952e-01, 1.57778770e-01, 1.68701246e-01, 1.57701433e-01,
          1.40379384e-01, 1.01930954e-01, 1.95938572e-02, 4.59285602e-02,
          5.02354763e-02, 2.72901952e-01, 6.27923682e-02, 7.63705224e-02,
          7.54166245e-02, 4.36763987e-02, 1.39159843e-01, 2.16552988e-01,
          2.72901952e-01, 1.95626587e-01, 2.72901952e-01, 2.34336942e-01,
          1.00520499e-01, 1.87502444e-01, 2.67580241e-01, 3.91648784e-02,
          8.95347819e-03, 5.07609509e-02, 1.01843543e-01, 2.72901952e-01,
          5.30721843e-02, 3.94595228e-02, 4.41735312e-02, 3.66577581e-02,
          0., 0., 0., 0., 6.85867846e-01, 0., 0., 0., 0., 0., 0., 0., 0.,
          0., 0., 0., 0., 0., 0., 0., 0., 0., 7.22705603e-01, 0., 0., 0.,
          0., 0., 0., 0., 0., 0., 0., 0., 0., 0., 0., 0., 0., 0., 0., 0.,
          0., 0., 0., 0., 0., 0., 0., 0., 0., 0., 0., 0., 0., 0., 0., 0.,
          0., 0., 0., 0., 0., 0., 0., 0., 0., 0., 0., 0., 0., 0., 0., 0.,
          0., 0., 0., 0., 0., 0., 0., 0., 0., 0., 0., 0., 0., 0., 0., 0.,
          0., 0., 0., 0., 0., 0., 0., 0., 0., 0., 0., 0., 0., 0., 0., 0.,
          0., 0., 0., 0., 0., 0., 0., 0., 0., 0., 0., 0., 0., 0., 0., 0.,
          0., 0., 0., 0., 0., 0., 0., 0., 0., 0., 0., 0., 0., 0., 0., 0.,
          0., 0., 0., 0., 0., 0., 0., 0., 0., 0., 0., 0., 0., 0., 0., 0.,
          0., 0., 0., 0., 0., 0., 0., 0., 0., 0., 0., 0., 0., 0., 0., 0.,
          0., 0., 0., 0., 0., 0., 0., 0., 0., 0., 0., 0., 0., 0., 0., 0.,
          0., 0., 0., 0., 0., 0., 0., 0., 0., 0., 0., 0., 0., 0., 0., 0.,
          0., 0., 0., 0., 0., 0., 0., 0., 0., 0., 0., 0., 0., 0., 0., 0.,
          0., 0., 0., 0., 0., 0., 0., 0., 0., 0., 0., 0., 0., 0., 0., 0.,
          0., 0., 0., 0., 0., 0., 0., 0., 0., 0., 0., 0., 0., 0., 0., 0.,
          0., 0., 0., 0., 0., 0., 0., 0., 0., 0., 0., 0., 0., 0., 0., 0.,
          0., 0., 0., 0., 0., 0., 0., 0., 0., 0., 0., 0., 0., 0., 0., 0.,
          0., 0., 0., 0., 0., 0., 0., 0., 0., 0., 0., 0., 0., 0., 0., 0.,
          0., 0., 0., 0., 0., 0., 0., 0., 0., 0., 0., 0., 0., 0., 0., 0.,
          0., 0., 0., 0., 0., 0., 0., 0., 0., 0., 0., 0., 0., 0., 0., 0.,
          0., 0., 0., 0., 0., 0., 0., 8.09910417e-01, 0., 0., 0., 0., 0.,
          0., 0., 0., 0., 0., 0., 0., 0., 0., 0., 0., 0., 5.79622507e-01,
          0., 0., 0., 0., 4.99771014e-02, 6.39927834e-02, 9.81350765e-02,
          2.25168820e-02, 2.88610548e-01, 4.24224436e-02, 3.35273668e-02,
          2.75330041e-02, 5.81820123e-02, 1.97152212e-01, 2.88610548e-01,
          2.88610548e-01, 1.67491466e-01, 2.88610548e-01, 1.00021273e-01,
          8.80058408e-02, 1.32592469e-01, 1.30699024e-01, 5.85130602e-02,
          7.03612342e-02, 4.64946479e-02, 3.64565440e-02, 1.73481017e-01,
